{"learner":{"attributes":{},"feature_names":[],"feature_types":[],"gradient_booster":{"model":{"gbtree_model_param":{"num_parallel_tree":"1","num_trees":"1000"},"iteration_indptr":[0,1,2,3,4,5,6,7,8,9,10,11,12,13,14,15,16,17,18,19,20,21,22,23,24,25,26,27,28,29,30,31,32,33,34,35,36,37,38,39,40,41,42,43,44,45,46,47,48,49,50,51,52,53,54,55,56,57,58,59,60,61,62,63,64,65,66,67,68,69,70,71,72,73,74,75,76,77,78,79,80,81,82,83,84,85,86,87,88,89,90,91,92,93,94,95,96,97,98,99,100,101,102,103,104,105,106,107,108,109,110,111,112,113,114,115,116,117,118,119,120,121,122,123,124,125,126,127,128,129,130,131,132,133,134,135,136,137,138,139,140,141,142,143,144,145,146,147,148,149,150,151,152,153,154,155,156,157,158,159,160,161,162,163,164,165,166,167,168,169,170,171,172,173,174,175,176,177,178,179,180,181,182,183,184,185,186,187,188,189,190,191,192,193,194,195,196,197,198,199,200,201,202,203,204,205,206,207,208,209,210,211,212,213,214,215,216,217,218,219,220,221,222,223,224,225,226,227,228,229,230,231,232,233,234,235,236,237,238,239,240,241,242,243,244,245,246,247,248,249,250,251,252,253,254,255,256,257,258,259,260,261,262,263,264,265,266,267,268,269,270,271,272,273,274,275,276,277,278,279,280,281,282,283,284,285,286,287,288,289,290,291,292,293,294,295,296,297,298,299,300,301,302,303,304,305,306,307,308,309,310,311,312,313,314,315,316,317,318,319,320,321,322,323,324,325,326,327,328,329,330,331,332,333,334,335,336,337,338,339,340,341,342,343,344,345,346,347,348,349,350,351,352,353,354,355,356,357,358,359,360,361,362,363,364,365,366,367,368,369,370,371,372,373,374,375,376,377,378,379,380,381,382,383,384,385,386,387,388,389,390,391,392,393,394,395,396,397,398,399,400,401,402,403,404,405,406,407,408,409,410,411,412,413,414,415,416,417,418,419,420,421,422,423,424,425,426,427,428,429,430,431,432,433,434,435,436,437,438,439,440,441,442,443,444,445,446,447,448,449,450,451,452,453,454,455,456,457,458,459,460,461,462,463,464,465,466,467,468,469,470,471,472,473,474,475,476,477,478,479,480,481,482,483,484,485,486,487,488,489,490,491,492,493,494,495,496,497,498,499,500,501,502,503,504,505,506,507,508,509,510,511,512,513,514,515,516,517,518,519,520,521,522,523,524,525,526,527,528,529,530,531,532,533,534,535,536,537,538,539,540,541,542,543,544,545,546,547,548,549,550,551,552,553,554,555,556,557,558,559,560,561,562,563,564,565,566,567,568,569,570,571,572,573,574,575,576,577,578,579,580,581,582,583,584,585,586,587,588,589,590,591,592,593,594,595,596,597,598,599,600,601,602,603,604,605,606,607,608,609,610,611,612,613,614,615,616,617,618,619,620,621,622,623,624,625,626,627,628,629,630,631,632,633,634,635,636,637,638,639,640,641,642,643,644,645,646,647,648,649,650,651,652,653,654,655,656,657,658,659,660,661,662,663,664,665,666,667,668,669,670,671,672,673,674,675,676,677,678,679,680,681,682,683,684,685,686,687,688,689,690,691,692,693,694,695,696,697,698,699,700,701,702,703,704,705,706,707,708,709,710,711,712,713,714,715,716,717,718,719,720,721,722,723,724,725,726,727,728,729,730,731,732,733,734,735,736,737,738,739,740,741,742,743,744,745,746,747,748,749,750,751,752,753,754,755,756,757,758,759,760,761,762,763,764,765,766,767,768,769,770,771,772,773,774,775,776,777,778,779,780,781,782,783,784,785,786,787,788,789,790,791,792,793,794,795,796,797,798,799,800,801,802,803,804,805,806,807,808,809,810,811,812,813,814,815,816,817,818,819,820,821,822,823,824,825,826,827,828,829,830,831,832,833,834,835,836,837,838,839,840,841,842,843,844,845,846,847,848,849,850,851,852,853,854,855,856,857,858,859,860,861,862,863,864,865,866,867,868,869,870,871,872,873,874,875,876,877,878,879,880,881,882,883,884,885,886,887,888,889,890,891,892,893,894,895,896,897,898,899,900,901,902,903,904,905,906,907,908,909,910,911,912,913,914,915,916,917,918,919,920,921,922,923,924,925,926,927,928,929,930,931,932,933,934,935,936,937,938,939,940,941,942,943,944,945,946,947,948,949,950,951,952,953,954,955,956,957,958,959,960,961,962,963,964,965,966,967,968,969,970,971,972,973,974,975,976,977,978,979,980,981,982,983,984,985,986,987,988,989,990,991,992,993,994,995,996,997,998,999,1000],"tree_info":[0,0,0,0,0,0,0,0,0,0,0,0,0,0,0,0,0,0,0,0,0,0,0,0,0,0,0,0,0,0,0,0,0,0,0,0,0,0,0,0,0,0,0,0,0,0,0,0,0,0,0,0,0,0,0,0,0,0,0,0,0,0,0,0,0,0,0,0,0,0,0,0,0,0,0,0,0,0,0,0,0,0,0,0,0,0,0,0,0,0,0,0,0,0,0,0,0,0,0,0,0,0,0,0,0,0,0,0,0,0,0,0,0,0,0,0,0,0,0,0,0,0,0,0,0,0,0,0,0,0,0,0,0,0,0,0,0,0,0,0,0,0,0,0,0,0,0,0,0,0,0,0,0,0,0,0,0,0,0,0,0,0,0,0,0,0,0,0,0,0,0,0,0,0,0,0,0,0,0,0,0,0,0,0,0,0,0,0,0,0,0,0,0,0,0,0,0,0,0,0,0,0,0,0,0,0,0,0,0,0,0,0,0,0,0,0,0,0,0,0,0,0,0,0,0,0,0,0,0,0,0,0,0,0,0,0,0,0,0,0,0,0,0,0,0,0,0,0,0,0,0,0,0,0,0,0,0,0,0,0,0,0,0,0,0,0,0,0,0,0,0,0,0,0,0,0,0,0,0,0,0,0,0,0,0,0,0,0,0,0,0,0,0,0,0,0,0,0,0,0,0,0,0,0,0,0,0,0,0,0,0,0,0,0,0,0,0,0,0,0,0,0,0,0,0,0,0,0,0,0,0,0,0,0,0,0,0,0,0,0,0,0,0,0,0,0,0,0,0,0,0,0,0,0,0,0,0,0,0,0,0,0,0,0,0,0,0,0,0,0,0,0,0,0,0,0,0,0,0,0,0,0,0,0,0,0,0,0,0,0,0,0,0,0,0,0,0,0,0,0,0,0,0,0,0,0,0,0,0,0,0,0,0,0,0,0,0,0,0,0,0,0,0,0,0,0,0,0,0,0,0,0,0,0,0,0,0,0,0,0,0,0,0,0,0,0,0,0,0,0,0,0,0,0,0,0,0,0,0,0,0,0,0,0,0,0,0,0,0,0,0,0,0,0,0,0,0,0,0,0,0,0,0,0,0,0,0,0,0,0,0,0,0,0,0,0,0,0,0,0,0,0,0,0,0,0,0,0,0,0,0,0,0,0,0,0,0,0,0,0,0,0,0,0,0,0,0,0,0,0,0,0,0,0,0,0,0,0,0,0,0,0,0,0,0,0,0,0,0,0,0,0,0,0,0,0,0,0,0,0,0,0,0,0,0,0,0,0,0,0,0,0,0,0,0,0,0,0,0,0,0,0,0,0,0,0,0,0,0,0,0,0,0,0,0,0,0,0,0,0,0,0,0,0,0,0,0,0,0,0,0,0,0,0,0,0,0,0,0,0,0,0,0,0,0,0,0,0,0,0,0,0,0,0,0,0,0,0,0,0,0,0,0,0,0,0,0,0,0,0,0,0,0,0,0,0,0,0,0,0,0,0,0,0,0,0,0,0,0,0,0,0,0,0,0,0,0,0,0,0,0,0,0,0,0,0,0,0,0,0,0,0,0,0,0,0,0,0,0,0,0,0,0,0,0,0,0,0,0,0,0,0,0,0,0,0,0,0,0,0,0,0,0,0,0,0,0,0,0,0,0,0,0,0,0,0,0,0,0,0,0,0,0,0,0,0,0,0,0,0,0,0,0,0,0,0,0,0,0,0,0,0,0,0,0,0,0,0,0,0,0,0,0,0,0,0,0,0,0,0,0,0,0,0,0,0,0,0,0,0,0,0,0,0,0,0,0,0,0,0,0,0,0,0,0,0,0,0,0,0,0,0,0,0,0,0,0,0,0,0,0,0,0,0,0,0,0,0,0,0,0,0,0,0,0,0,0,0,0,0,0,0,0,0,0,0,0,0,0,0,0,0,0,0,0,0,0,0,0,0,0,0,0,0,0,0,0,0,0,0,0,0,0,0,0,0,0,0,0,0,0,0,0,0,0,0,0,0,0,0,0,0,0,0,0,0,0,0,0,0,0,0,0,0,0,0,0,0,0,0,0,0,0,0,0,0,0,0,0,0,0,0,0,0,0,0,0,0,0,0,0,0,0,0,0,0,0,0,0,0,0,0,0,0,0,0,0,0,0,0,0,0,0,0,0,0,0,0,0,0,0,0,0,0,0,0,0,0,0,0,0,0,0,0,0,0,0,0,0,0,0,0,0,0,0,0,0,0,0,0,0,0,0,0,0,0,0,0,0,0],"trees":[{"base_weights":[-1.0178926E-8,-8.107523E-2,1.9157211E-1,-1.525733E-1,-2.117151E-2,1.48552E-1,4.4953308E-1,-2.0908077E-1,-1.2596098E-1,-6.037384E-2,1.0844159E-2,1.0884043E-1,2.0994765E-1,1.7687574E-1,4.8902026E-1,-1.396683E-1,-2.4100628E-1,-1.471376E-1,-7.688548E-2,-2.7717156E-2,-1.0292644E-1,1.24225244E-1,-5.343096E-3,7.52367E-2,1.7532228E-1,1.8887669E-1,3.5219777E-1,8.1899345E-2,2.5219927E-2,4.27285E-1,5.8020126E-2,-1.6225176E-1,1.5262063E-2,-2.4735646E-1,-7.875724E-2,-1.3266487E-1,-1.8494102E-1,-9.31201E-2,1.7575316E-2,1.2950845E-1,-4.2844765E-2,-1.153986E-1,1.1767751E-1,1.4542265E-1,-1.0549534E-1,2.8723322E-2,-3.2509416E-2,8.65365E-2,-7.9009876E-2,1.110624E-1,2.3642975E-1,1.6901797E-1,3.2563856E-1,2.6867583E-1,4.5121673E-2,-4.618633E-3,1.0368335E-1,2.0484928E-2,4.381563E-1,-1.8966038E-2,-1.12642385E-2,-5.1766112E-3,6.362544E-3,-2.5236612E-2,-1.3094415E-2,-1.2768674E-2,1.4326312E-3,-1.1259047E-2,-1.5846942E-2,3.8429636E-3,-1.9507509E-2,-4.8102825E-3,-1.1301193E-2,-1.7195107E-2,6.422461E-3,1.7533729E-2,1.0205022E-3,-6.214698E-4,-7.999863E-3,-1.0714938E-2,-2.5039414E-2,-9.223047E-3,1.9789467E-2,2.0094708E-2,9.046988E-3,-2.663522E-3,-1.3171235E-2,9.580373E-3,1.1180132E-3,-4.565506E-3,2.7491415E-3,1.5222251E-2,5.9500975E-3,6.2092543E-3,-1.2698516E-2,1.2778456E-2,-6.963643E-3,7.4025965E-3,2.6876664E-2,1.4136786E-2,2.6186002E-2,-3.8552599E-3,3.3906337E-2,3.2714706E-2,1.657957E-2,1.2133508E-2,3.3818781E-3,4.9137846E-2,3.7488233E-2],"categories":[],"categories_nodes":[],"categories_segments":[],"categories_sizes":[],"default_left":[0,0,0,0,0,0,0,0,0,0,0,0,0,0,0,0,0,0,0,0,0,0,0,0,0,0,0,0,0,0,0,0,0,0,0,0,0,0,0,0,0,0,0,0,0,0,0,0,0,0,0,0,0,0,0,0,0,0,0,0,0,0,0,0,0,0,0,0,0,0,0,0,0,0,0,0,0,0,0,0,0,0,0,0,0,0,0,0,0,0,0,0,0,0,0,0,0,0,0,0,0,0,0,0,0,0,0,0,0],"id":0,"left_children":[1,3,5,7,9,11,13,15,17,19,21,23,25,27,29,31,33,35,37,39,41,43,45,47,49,51,53,55,-1,57,-1,59,61,63,65,67,69,71,73,75,77,79,81,83,85,87,89,91,93,95,97,99,101,103,-1,-1,105,-1,107,-1,-1,-1,-1,-1,-1,-1,-1,-1,-1,-1,-1,-1,-1,-1,-1,-1,-1,-1,-1,-1,-1,-1,-1,-1,-1,-1,-1,-1,-1,-1,-1,-1,-1,-1,-1,-1,-1,-1,-1,-1,-1,-1,-1,-1,-1,-1,-1,-1,-1],"loss_changes":[4.4762512E1,8.669846E0,9.443789E0,1.3616676E0,1.3850176E0,1.7716045E0,1.2270126E0,6.1785126E-1,6.434164E-1,6.8640196E-1,1.1165434E0,9.898925E-1,7.967138E-1,1.0096228E-1,3.4877205E-1,3.3486843E-1,1.8658161E-1,2.156496E-1,2.9607534E-1,6.7627096E-1,6.051326E-1,3.85422E-1,4.9420354E-1,5.297233E-1,5.627551E-1,6.320877E-1,1.7649794E-1,2.9900715E-2,0E0,7.226086E-2,0E0,9.149313E-2,4.5435853E-2,7.892513E-2,4.282006E-2,1.4843893E-1,2.768712E-1,1.4142191E-1,2.6744038E-1,1.3489914E-1,3.5062754E-1,2.0034647E-1,2.2031061E-1,1.9540584E-1,1.0964148E-2,2.7783144E-1,2.3551369E-1,4.881823E-1,1.5004283E-1,2.3552412E-1,3.792286E-1,5.354433E-1,1.6463661E-1,7.810187E-2,0E0,0E0,5.762428E-3,0E0,2.794838E-2,0E0,0E0,0E0,0E0,0E0,0E0,0E0,0E0,0E0,0E0,0E0,0E0,0E0,0E0,0E0,0E0,0E0,0E0,0E0,0E0,0E0,0E0,0E0,0E0,0E0,0E0,0E0,0E0,0E0,0E0,0E0,0E0,0E0,0E0,0E0,0E0,0E0,0E0,0E0,0E0,0E0,0E0,0E0,0E0,0E0,0E0,0E0,0E0,0E0,0E0],"parents":[2147483647,0,0,1,1,2,2,3,3,4,4,5,5,6,6,7,7,8,8,9,9,10,10,11,11,12,12,13,13,14,14,15,15,16,16,17,17,18,18,19,19,20,20,21,21,22,22,23,23,24,24,25,25,26,26,27,27,29,29,31,31,32,32,33,33,34,34,35,35,36,36,37,37,38,38,39,39,40,40,41,41,42,42,43,43,44,44,45,45,46,46,47,47,48,48,49,49,50,50,51,51,52,52,53,53,56,56,58,58],"right_children":[2,4,6,8,10,12,14,16,18,20,22,24,26,28,30,32,34,36,38,40,42,44,46,48,50,52,54,56,-1,58,-1,60,62,64,66,68,70,72,74,76,78,80,82,84,86,88,90,92,94,96,98,100,102,104,-1,-1,106,-1,108,-1,-1,-1,-1,-1,-1,-1,-1,-1,-1,-1,-1,-1,-1,-1,-1,-1,-1,-1,-1,-1,-1,-1,-1,-1,-1,-1,-1,-1,-1,-1,-1,-1,-1,-1,-1,-1,-1,-1,-1,-1,-1,-1,-1,-1,-1,-1,-1,-1,-1],"split_conditions":[5.840021E0,3.0878649E0,1E0,1.7478251E0,4.0711074E0,8.930104E0,7.4979906E0,6.418925E0,4.460152E1,1.385E2,2.4505846E-2,1E0,2.1944997E0,7.026013E0,1.1950754E1,1.0709724E-2,1.1219467E0,6.8835616E-2,2.1411598E-1,6.6728E-2,1.87013E-1,1E0,1.149E2,3.2640404E1,7.0478865E-3,1.7439148E1,-1.0481994E1,1.5006292E0,2.5219927E-2,-3.9442456E-1,5.8020126E-2,-9.398422E-1,1.4667302E0,2.2585309E0,7.170053E1,6.5E1,1.5283369E-5,1E0,4.4170972E-2,1.4969283E1,1E0,1E0,1.2043526E-3,1.4784426E1,3.3411217E1,8E-1,1.8432954E2,3.4986355E-4,1.6965225E-1,2.5E0,-6.9897413E0,4.70669E-1,3.6003634E-1,2.9E0,4.5121673E-2,-4.618633E-3,1.6251749E-1,2.0484928E-2,-6.454378E-2,-1.8966038E-2,-1.12642385E-2,-5.1766112E-3,6.362544E-3,-2.5236612E-2,-1.3094415E-2,-1.2768674E-2,1.4326312E-3,-1.1259047E-2,-1.5846942E-2,3.8429636E-3,-1.9507509E-2,-4.8102825E-3,-1.1301193E-2,-1.7195107E-2,6.422461E-3,1.7533729E-2,1.0205022E-3,-6.214698E-4,-7.999863E-3,-1.0714938E-2,-2.5039414E-2,-9.223047E-3,1.9789467E-2,2.0094708E-2,9.046988E-3,-2.663522E-3,-1.3171235E-2,9.580373E-3,1.1180132E-3,-4.565506E-3,2.7491415E-3,1.5222251E-2,5.9500975E-3,6.2092543E-3,-1.2698516E-2,1.2778456E-2,-6.963643E-3,7.4025965E-3,2.6876664E-2,1.4136786E-2,2.6186002E-2,-3.8552599E-3,3.3906337E-2,3.2714706E-2,1.657957E-2,1.2133508E-2,3.3818781E-3,4.9137846E-2,3.7488233E-2],"split_indices":[0,0,101,0,0,0,0,2,1,50,34,62,3,18,0,28,24,33,43,5,4,76,50,2,28,0,67,3,0,47,0,69,0,3,1,20,29,65,27,2,65,94,13,2,2,55,30,15,8,55,69,32,6,52,0,0,8,0,47,0,0,0,0,0,0,0,0,0,0,0,0,0,0,0,0,0,0,0,0,0,0,0,0,0,0,0,0,0,0,0,0,0,0,0,0,0,0,0,0,0,0,0,0,0,0,0,0,0,0],"split_type":[0,0,0,0,0,0,0,0,0,0,0,0,0,0,0,0,0,0,0,0,0,0,0,0,0,0,0,0,0,0,0,0,0,0,0,0,0,0,0,0,0,0,0,0,0,0,0,0,0,0,0,0,0,0,0,0,0,0,0,0,0,0,0,0,0,0,0,0,0,0,0,0,0,0,0,0,0,0,0,0,0,0,0,0,0,0,0,0,0,0,0,0,0,0,0,0,0,0,0,0,0,0,0,0,0,0,0,0,0],"sum_hessian":[2.88E3,2.024E3,8.56E2,9.22E2,1.102E3,7.35E2,1.21E2,2.93E2,6.29E2,4.95E2,6.07E2,4.48E2,2.87E2,1.6E1,1.05E2,9.4E1,1.99E2,4.38E2,1.91E2,2.81E2,2.14E2,7.5E1,5.32E2,2.99E2,1.49E2,2.52E2,3.5E1,8E0,8E0,6.6E1,3.9E1,8.2E1,1.2E1,1.91E2,8E0,3.2E2,1.18E2,1.63E2,2.8E1,2.4E1,2.57E2,2.03E2,1.1E1,6.9E1,6E0,2.36E2,2.96E2,2.79E2,2E1,7.4E1,7.5E1,2.22E2,3E1,2.1E1,1.4E1,1E0,7E0,4E0,6.2E1,5.1E1,3.1E1,5E0,7E0,1.82E2,9E0,5E0,3E0,1.83E2,1.37E2,5E0,1.13E2,5.1E1,1.12E2,5E0,2.3E1,1.7E1,7E0,1.3E2,1.27E2,1.93E2,1E1,3E0,8E0,3.3E1,3.6E1,2E0,4E0,4.8E1,1.88E2,2.43E2,5.3E1,8E1,1.99E2,5E0,1.5E1,6.8E1,6E0,1.3E1,6.2E1,1.73E2,4.9E1,1E0,2.9E1,1.2E1,9E0,5E0,2E0,3E1,3.2E1],"tree_param":{"num_deleted":"0","num_feature":"111","num_nodes":"109","size_leaf_vector":"1"}},{"base_weights":[9.6966156E-5,-6.696566E-2,1.8868831E-1,-1.24155715E-1,1.5779745E-3,1.472866E-1,4.1129E-1,-1.643296E-1,-8.747785E-2,-7.1227644E-3,1.4897794E-1,1.3645968E-1,2.871695E-1,1.3188893E-1,4.4167608E-1,-1.8543576E-1,-1.17412604E-1,-1.4975379E-2,-1.0621042E-1,2.185691E-2,-3.2413557E-2,1.6782025E-1,-6.924064E-2,1.2549624E-1,2.5094226E-1,3.867457E-1,2.3463085E-1,1.822875E-2,1.8037913E-2,4.119169E-1,6.2288262E-2,-1.5038505E-1,-2.1414152E-1,-1.7262878E-1,-9.438684E-2,6.8409264E-2,-5.455439E-2,-9.093984E-2,-1.5484115E-1,1.4381866E-1,1.0939559E-2,-6.424519E-2,-9.403392E-3,1.8573754E-1,-3.058288E-2,1.0647753E-2,-1.3978957E-2,1.3093977E-1,-9.032151E-2,2.7161372E-1,6.442043E-3,1.02442745E-2,4.255926E-1,-3.6624968E-3,2.4456249E-1,-4.3877005E-3,4.4724443E-3,3.453094E-1,4.6855515E-1,-2.608267E-2,-1.3909124E-2,-2.3037102E-2,-1.6875641E-2,-1.9320268E-2,1.0446857E-3,-6.730877E-3,-1.6209304E-2,1.2752855E-3,1.0730119E-2,-9.143512E-3,-7.7638996E-4,-6.9402675E-3,-1.2277666E-2,-1.7338661E-2,-3.0413547E-3,8.605945E-3,2.620152E-2,3.9133593E-3,-2.6274573E-3,2.3980604E-3,-7.8918645E-3,-2.0786491E-3,1.001383E-2,2.2347769E-2,1.0100737E-2,5.622512E-3,-6.634116E-3,1.4061539E-2,4.44691E-3,-9.069319E-4,-1.3445392E-2,1.648992E-2,3.2137286E-2,6.2759407E-3,-5.202267E-3,4.6404738E-2,1.5554584E-2,2.5226846E-2,8.855055E-3,4.0273737E-2,2.8785398E-2,4.729904E-2,1.3005003E-2],"categories":[],"categories_nodes":[],"categories_segments":[],"categories_sizes":[],"default_left":[0,0,0,0,0,0,0,0,0,0,0,0,0,0,0,0,0,0,0,0,0,0,0,0,0,0,0,0,0,0,0,0,0,0,0,0,0,0,0,0,0,0,0,0,0,0,0,0,0,0,0,0,0,0,0,0,0,0,0,0,0,0,0,0,0,0,0,0,0,0,0,0,0,0,0,0,0,0,0,0,0,0,0,0,0,0,0,0,0,0,0,0,0,0,0,0,0,0,0,0,0,0,0],"id":1,"left_children":[1,3,5,7,9,11,13,15,17,19,21,23,25,27,29,31,33,35,37,39,41,43,45,47,49,51,53,55,-1,57,-1,59,61,63,65,67,69,71,73,75,77,79,81,83,85,-1,-1,87,89,91,93,-1,95,-1,97,-1,-1,99,101,-1,-1,-1,-1,-1,-1,-1,-1,-1,-1,-1,-1,-1,-1,-1,-1,-1,-1,-1,-1,-1,-1,-1,-1,-1,-1,-1,-1,-1,-1,-1,-1,-1,-1,-1,-1,-1,-1,-1,-1,-1,-1,-1,-1],"loss_changes":[3.6449883E1,8.3341465E0,6.906786E0,1.6934013E0,1.2425102E0,9.285784E-1,9.4355583E-1,5.248394E-1,8.2416916E-1,6.713293E-1,2.336539E-1,7.153053E-1,1.4467931E-1,6.8360195E-2,3.1503487E-1,3.4912872E-1,2.0492911E-1,4.1956753E-1,3.4460402E-1,5.669768E-1,3.575644E-1,1.8342268E-1,7.686809E-2,6.520977E-1,2.560134E-1,1.1102152E-1,9.516561E-2,1.0190049E-2,0E0,1.9282055E-1,0E0,1.8075275E-1,1.1285877E-1,1.903472E-1,2.1825874E-1,8.737956E-2,1.4769751E-1,2.451787E-1,2.5778937E-1,2.16394E-1,4.1337025E-1,2.6728094E-1,3.574548E-1,1.24522805E-1,1.9250564E-2,0E0,0E0,4.3884945E-1,4.898256E-2,1.9657683E-1,1.9727807E-2,0E0,5.2434206E-2,0E0,1.49303675E-2,0E0,0E0,3.9149284E-2,1.0551453E-2,0E0,0E0,0E0,0E0,0E0,0E0,0E0,0E0,0E0,0E0,0E0,0E0,0E0,0E0,0E0,0E0,0E0,0E0,0E0,0E0,0E0,0E0,0E0,0E0,0E0,0E0,0E0,0E0,0E0,0E0,0E0,0E0,0E0,0E0,0E0,0E0,0E0,0E0,0E0,0E0,0E0,0E0,0E0,0E0],"parents":[2147483647,0,0,1,1,2,2,3,3,4,4,5,5,6,6,7,7,8,8,9,9,10,10,11,11,12,12,13,13,14,14,15,15,16,16,17,17,18,18,19,19,20,20,21,21,22,22,23,23,24,24,25,25,26,26,27,27,29,29,31,31,32,32,33,33,34,34,35,35,36,36,37,37,38,38,39,39,40,40,41,41,42,42,43,43,44,44,47,47,48,48,49,49,50,50,52,52,54,54,57,57,58,58],"right_children":[2,4,6,8,10,12,14,16,18,20,22,24,26,28,30,32,34,36,38,40,42,44,46,48,50,52,54,56,-1,58,-1,60,62,64,66,68,70,72,74,76,78,80,82,84,86,-1,-1,88,90,92,94,-1,96,-1,98,-1,-1,100,102,-1,-1,-1,-1,-1,-1,-1,-1,-1,-1,-1,-1,-1,-1,-1,-1,-1,-1,-1,-1,-1,-1,-1,-1,-1,-1,-1,-1,-1,-1,-1,-1,-1,-1,-1,-1,-1,-1,-1,-1,-1,-1,-1,-1],"split_conditions":[6.2635026E0,3.5363197E0,1E0,2.3201466E0,2.210403E0,1.7439148E1,7.4979906E0,4.460152E1,3.6690384E-2,1E0,3.738205E2,9.545657E-1,6.468907E-2,1.465989E-1,1E0,7.92E1,1.4121921E0,7.8866367E0,1.259E2,2.8590416E-4,4.436095E0,2.2706733E0,1.0547883E1,9.082715E-1,3.2487404E-1,1.7463016E2,2.0619194E1,3.0410297E1,1.8037913E-2,1.0987775E1,6.2288262E-2,9.573734E-1,1.1988651E1,6.116095E-1,1.2853293E1,2.8166537E0,3.0610688E0,7.513047E-2,1.45706E-1,1.6078928E1,8.4803E-2,4.626927E-2,2.6739377E-1,6.853761E-1,1.48971615E1,1.0647753E-2,-1.3978957E-2,1E0,-6.3422117E0,2.2016492E0,1.45775E-1,1.02442745E-2,1.7550459E1,-3.6624968E-3,2.1202625E-1,-4.3877005E-3,4.4724443E-3,1.469E2,2.3E1,-2.608267E-2,-1.3909124E-2,-2.3037102E-2,-1.6875641E-2,-1.9320268E-2,1.0446857E-3,-6.730877E-3,-1.6209304E-2,1.2752855E-3,1.0730119E-2,-9.143512E-3,-7.7638996E-4,-6.9402675E-3,-1.2277666E-2,-1.7338661E-2,-3.0413547E-3,8.605945E-3,2.620152E-2,3.9133593E-3,-2.6274573E-3,2.3980604E-3,-7.8918645E-3,-2.0786491E-3,1.001383E-2,2.2347769E-2,1.0100737E-2,5.622512E-3,-6.634116E-3,1.4061539E-2,4.44691E-3,-9.069319E-4,-1.3445392E-2,1.648992E-2,3.2137286E-2,6.2759407E-3,-5.202267E-3,4.6404738E-2,1.5554584E-2,2.5226846E-2,8.855055E-3,4.0273737E-2,2.8785398E-2,4.729904E-2,1.3005003E-2],"split_indices":[0,0,101,0,3,0,0,1,33,65,30,24,26,11,66,51,0,2,51,12,0,3,2,25,41,37,1,1,0,0,0,0,67,9,2,0,0,41,5,109,4,26,48,7,2,0,0,103,68,3,4,0,109,0,44,0,0,51,23,0,0,0,0,0,0,0,0,0,0,0,0,0,0,0,0,0,0,0,0,0,0,0,0,0,0,0,0,0,0,0,0,0,0,0,0,0,0,0,0,0,0,0,0],"split_type":[0,0,0,0,0,0,0,0,0,0,0,0,0,0,0,0,0,0,0,0,0,0,0,0,0,0,0,0,0,0,0,0,0,0,0,0,0,0,0,0,0,0,0,0,0,0,0,0,0,0,0,0,0,0,0,0,0,0,0,0,0,0,0,0,0,0,0,0,0,0,0,0,0,0,0,0,0,0,0,0,0,0,0,0,0,0,0,0,0,0,0,0,0,0,0,0,0,0,0,0,0,0,0],"sum_hessian":[2.88E3,2.125E3,7.55E2,1.158E3,9.67E2,6.38E2,1.17E2,5.51E2,6.07E2,9.14E2,5.3E1,5.94E2,4.4E1,1.2E1,1.05E2,3.78E2,1.73E2,1.25E2,4.82E2,4.26E2,4.88E2,4.9E1,4E0,5.44E2,5E1,1.3E1,3.1E1,4E0,8E0,9.3E1,1.2E1,1.73E2,2.05E2,4.9E1,1.24E2,4E1,8.5E1,3.69E2,1.13E2,3.4E1,3.92E2,2.04E2,2.84E2,4.5E1,4E0,1E0,3E0,5.31E2,1.3E1,4.6E1,4E0,2E0,1.1E1,1E0,3E1,1E0,3E0,4.6E1,4.7E1,1.4E1,1.59E2,1.48E2,5.7E1,4.4E1,5E0,9E1,3.4E1,1.7E1,2.3E1,4.7E1,3.8E1,2.22E2,1.47E2,9.8E1,1.5E1,2.4E1,1E1,2.23E2,1.69E2,2.9E1,1.75E2,2.58E2,2.6E1,3E1,1.5E1,1E0,3E0,4.77E2,5.4E1,5E0,8E0,1.6E1,3E1,2E0,2E0,9E0,2E0,2.8E1,2E0,2E1,2.6E1,4.6E1,1E0],"tree_param":{"num_deleted":"0","num_feature":"111","num_nodes":"103","size_leaf_vector":"1"}},{"base_weights":[1.8246702E-4,-6.724648E-2,1.5383436E-1,-1.3188568E-1,-2.4241002E-2,1.19145416E-1,3.6809975E-1,-1.8468697E-1,-1.1362211E-1,-5.439422E-2,7.6516294E-3,8.571676E-2,1.734015E-1,1.5180121E-1,3.993165E-1,-1.1631344E-1,-2.0497939E-1,-1.3452217E-1,-7.208724E-2,1.3987983E-3,-7.351937E-2,1.0997266E-1,-5.992778E-3,5.605488E-2,1.4525162E-1,1.5250178E-1,2.7732342E-1,2.5144482E-2,8.93293E-2,3.7210143E-1,5.653857E-2,-1.6581634E-2,-1.4146052E-1,-2.0868191E-1,-5.1426884E-2,-1.17944054E-1,-1.6500236E-1,-5.0469317E-2,-1.3855812E-1,1.53567465E-2,-1.7086579E-1,-9.166437E-2,-2.7599923E-2,1.310779E-1,-9.568489E-2,2.3698818E-2,-3.0161131E-2,1.1649623E-1,3.0710682E-2,9.067821E-2,1.972956E-1,2.6635474E-1,1.3196455E-1,4.0284324E-1,2.4124648E-1,1.1884114E-2,5.9535354E-4,3.122478E-1,4.22956E-1,1.0053235E-2,-3.8346269E-3,-3.3298673E-3,-1.6408036E-2,-7.412061E-3,-2.127546E-2,-7.1533057E-3,1.4498889E-3,-8.074219E-3,-1.3783589E-2,-1.7744696E-2,-4.2992933E-3,-8.119133E-3,3.7445356E-5,3.740112E-4,-1.4469295E-2,1.0190612E-2,-6.591471E-4,-5.4421145E-3,-1.887126E-2,-1.974977E-2,-8.492559E-3,1.3055357E-2,-4.023354E-3,1.8679231E-2,8.116946E-3,-2.6015083E-3,-1.1834981E-2,8.55512E-3,6.762309E-4,-4.7975793E-3,7.32494E-4,1.3073939E-2,-1.4795935E-3,-2.7810982E-3,4.946351E-3,1.0469975E-2,-6.6497372E-3,3.9220642E-2,1.7289864E-2,4.1329138E-2,2.1663586E-2,1.0692178E-2,2.1728981E-2,1.7525792E-2,4.4283077E-2,2.7397737E-2,1.4477049E-2,-4.1683153E-3,2.8582574E-3,3.6455747E-2,2.5999779E-2,4.3067243E-2,1.636517E-2],"categories":[],"categories_nodes":[],"categories_segments":[],"categories_sizes":[],"default_left":[0,0,0,0,0,0,0,0,0,0,0,0,0,0,0,0,0,0,0,0,0,0,0,0,0,0,0,0,0,0,0,0,0,0,0,0,0,0,0,0,0,0,0,0,0,0,0,0,0,0,0,0,0,0,0,0,0,0,0,0,0,0,0,0,0,0,0,0,0,0,0,0,0,0,0,0,0,0,0,0,0,0,0,0,0,0,0,0,0,0,0,0,0,0,0,0,0,0,0,0,0,0,0,0,0,0,0,0,0,0,0,0,0],"id":2,"left_children":[1,3,5,7,9,11,13,15,17,19,21,23,25,27,29,31,33,35,37,39,41,43,45,47,49,51,53,-1,55,57,-1,59,61,63,65,67,69,71,73,75,77,79,81,83,85,87,89,91,93,95,97,99,101,103,105,-1,107,109,111,-1,-1,-1,-1,-1,-1,-1,-1,-1,-1,-1,-1,-1,-1,-1,-1,-1,-1,-1,-1,-1,-1,-1,-1,-1,-1,-1,-1,-1,-1,-1,-1,-1,-1,-1,-1,-1,-1,-1,-1,-1,-1,-1,-1,-1,-1,-1,-1,-1,-1,-1,-1,-1,-1],"loss_changes":[2.9859194E1,5.564823E0,6.4894314E0,7.504883E-1,1.1582615E0,1.3599262E0,7.6314354E-1,2.592001E-1,5.085468E-1,6.6060674E-1,8.1877947E-1,8.236046E-1,5.8322716E-1,8.336237E-2,2.6869392E-1,1.2054461E-1,7.795954E-2,1.8063927E-1,2.8327346E-1,3.849331E-1,3.8157916E-1,3.1203336E-1,3.7243E-1,4.8048288E-1,4.2518353E-1,5.307007E-1,1.15648985E-1,0E0,3.135366E-2,1.5405273E-1,0E0,3.1893414E-2,8.995384E-2,6.753063E-2,7.6647224E-3,1.8127441E-1,2.0038629E-1,2.4058193E-1,4.33169E-2,2.8181317E-1,1.4668018E-2,2.1857905E-1,2.6899537E-1,1.6001713E-1,7.974543E-3,2.4350372E-1,1.9134265E-1,1.7584586E-1,2.4720366E-1,1.7886204E-1,3.078518E-1,1.7346525E-1,4.1907978E-1,4.2955875E-3,8.3488464E-2,0E0,5.924443E-3,3.3675194E-2,2.556324E-2,0E0,0E0,0E0,0E0,0E0,0E0,0E0,0E0,0E0,0E0,0E0,0E0,0E0,0E0,0E0,0E0,0E0,0E0,0E0,0E0,0E0,0E0,0E0,0E0,0E0,0E0,0E0,0E0,0E0,0E0,0E0,0E0,0E0,0E0,0E0,0E0,0E0,0E0,0E0,0E0,0E0,0E0,0E0,0E0,0E0,0E0,0E0,0E0,0E0,0E0,0E0,0E0,0E0,0E0],"parents":[2147483647,0,0,1,1,2,2,3,3,4,4,5,5,6,6,7,7,8,8,9,9,10,10,11,11,12,12,13,13,14,14,15,15,16,16,17,17,18,18,19,19,20,20,21,21,22,22,23,23,24,24,25,25,26,26,28,28,29,29,31,31,32,32,33,33,34,34,35,35,36,36,37,37,38,38,39,39,40,40,41,41,42,42,43,43,44,44,45,45,46,46,47,47,48,48,49,49,50,50,51,51,52,52,53,53,54,54,56,56,57,57,58,58],"right_children":[2,4,6,8,10,12,14,16,18,20,22,24,26,28,30,32,34,36,38,40,42,44,46,48,50,52,54,-1,56,58,-1,60,62,64,66,68,70,72,74,76,78,80,82,84,86,88,90,92,94,96,98,100,102,104,106,-1,108,110,112,-1,-1,-1,-1,-1,-1,-1,-1,-1,-1,-1,-1,-1,-1,-1,-1,-1,-1,-1,-1,-1,-1,-1,-1,-1,-1,-1,-1,-1,-1,-1,-1,-1,-1,-1,-1,-1,-1,-1,-1,-1,-1,-1,-1,-1,-1,-1,-1,-1,-1,-1,-1,-1,-1],"split_conditions":[5.758779E0,2.8557744E0,1E0,1.5097675E0,4.0711074E0,8.930104E0,7.4979906E0,4.7031965E0,4.3732716E1,4.727946E-2,2.2631405E-2,1E0,2.1884708E0,5.197021E-1,1E0,4.3172583E-2,1.1219467E0,1.1E2,1.2853293E1,3.5134632E1,4.926703E-1,1E0,1.149E2,5.5097476E-2,7.0478865E-3,4.378359E-2,5.6995354E1,2.5144482E-2,5.6250696E-4,1.0987775E1,5.653857E-2,5.084028E-1,4.96E-1,3.5721385E-1,2.5911491E1,5.3378813E-2,4.535E2,8.7022E-2,-1.3828785E1,6.5879908E0,-3.3267505E-2,-4.5899296E-1,5.1455E-2,3.2524E1,3.3411217E1,8E-1,1E0,7.48197E-2,-1.4875989E-1,2.5E0,-2.680198E-1,1.5494058E-2,4.70669E-1,4.9280236E-4,1.6323924E-3,1.1884114E-2,6.8977547E0,4.013E0,4.0762857E-1,1.0053235E-2,-3.8346269E-3,-3.3298673E-3,-1.6408036E-2,-7.412061E-3,-2.127546E-2,-7.1533057E-3,1.4498889E-3,-8.074219E-3,-1.3783589E-2,-1.7744696E-2,-4.2992933E-3,-8.119133E-3,3.7445356E-5,3.740112E-4,-1.4469295E-2,1.0190612E-2,-6.591471E-4,-5.4421145E-3,-1.887126E-2,-1.974977E-2,-8.492559E-3,1.3055357E-2,-4.023354E-3,1.8679231E-2,8.116946E-3,-2.6015083E-3,-1.1834981E-2,8.55512E-3,6.762309E-4,-4.7975793E-3,7.32494E-4,1.3073939E-2,-1.4795935E-3,-2.7810982E-3,4.946351E-3,1.0469975E-2,-6.6497372E-3,3.9220642E-2,1.7289864E-2,4.1329138E-2,2.1663586E-2,1.0692178E-2,2.1728981E-2,1.7525792E-2,4.4283077E-2,2.7397737E-2,1.4477049E-2,-4.1683153E-3,2.8582574E-3,3.6455747E-2,2.5999779E-2,4.3067243E-2,1.636517E-2],"split_indices":[0,0,101,0,0,0,0,2,1,33,34,62,3,6,66,33,24,51,2,2,25,76,50,26,28,26,1,0,16,0,0,24,38,24,1,41,53,4,67,2,44,40,4,18,2,55,62,33,43,55,48,33,32,14,13,0,0,38,7,0,0,0,0,0,0,0,0,0,0,0,0,0,0,0,0,0,0,0,0,0,0,0,0,0,0,0,0,0,0,0,0,0,0,0,0,0,0,0,0,0,0,0,0,0,0,0,0,0,0,0,0,0,0],"split_type":[0,0,0,0,0,0,0,0,0,0,0,0,0,0,0,0,0,0,0,0,0,0,0,0,0,0,0,0,0,0,0,0,0,0,0,0,0,0,0,0,0,0,0,0,0,0,0,0,0,0,0,0,0,0,0,0,0,0,0,0,0,0,0,0,0,0,0,0,0,0,0,0,0,0,0,0,0,0,0,0,0,0,0,0,0,0,0,0,0,0,0,0,0,0,0,0,0,0,0,0,0,0,0,0,0,0,0,0,0,0,0,0,0],"sum_hessian":[2.88E3,2.002E3,8.78E2,7.99E2,1.203E3,7.57E2,1.21E2,2.03E2,5.96E2,6.18E2,5.85E2,4.7E2,2.87E2,1.6E1,1.05E2,4.8E1,1.55E2,3.95E2,2.01E2,1.58E2,4.6E2,6.8E1,5.17E2,3.15E2,1.55E2,2.41E2,4.6E1,5E0,1.1E1,9.3E1,1.2E1,1E1,3.8E1,1.51E2,4E0,2.59E2,1.36E2,1.53E2,4.8E1,1.47E2,1.1E1,3.29E2,1.31E2,6.2E1,6E0,2.32E2,2.85E2,9.2E1,2.23E2,7.7E1,7.8E1,3.5E1,2.06E2,8E0,3.8E1,8E0,3E0,4.6E1,4.7E1,1E0,9E0,7E0,3.1E1,5E0,1.46E2,3E0,1E0,9.2E1,1.67E2,1.23E2,1.3E1,9.5E1,5.8E1,2E0,4.6E1,2.9E1,1.18E2,2E0,9E0,1.8E1,3.11E2,9E0,1.22E2,2.8E1,3.4E1,2E0,4E0,4.9E1,1.83E2,1.93E2,9.2E1,8.3E1,9E0,5.4E1,1.69E2,7.1E1,6E0,7E0,7.1E1,7E0,2.8E1,1.61E2,4.5E1,2E0,6E0,2.7E1,1.1E1,1E0,2E0,2E1,2.6E1,4.5E1,2E0],"tree_param":{"num_deleted":"0","num_feature":"111","num_nodes":"113","size_leaf_vector":"1"}},{"base_weights":[2.8809134E-4,-6.810436E-2,1.2400748E-1,-1.188396E-1,-2.9640498E-2,9.650833E-2,3.1966403E-1,-1.6645314E-1,-1.0237058E-1,-4.6527296E-2,1.010521E-2,6.809323E-2,1.5675266E-1,9.544974E-2,3.6106813E-1,-1.04958005E-1,-1.847019E-1,-7.775346E-2,-1.313017E-1,-7.683897E-2,-2.2458E-2,6.990728E-2,-1.2202508E-2,9.881262E-2,2.173734E-2,1.3764587E-1,2.5179714E-1,1.7616734E-1,-1.0956362E-2,3.1295282E-1,4.326346E-1,-1.4358137E-2,-1.2782058E-1,-1.3064769E-1,-1.9601628E-1,-9.3786605E-2,-1.4614093E-2,-7.012911E-2,-1.4212039E-1,-4.832134E-2,-1.0994692E-1,-1.3296354E-2,-1.18540436E-1,1.5169753E-1,3.763945E-2,1.8631406E-1,-1.8324345E-2,1.0433084E-1,-1.3350846E-2,9.613648E-3,1.8448511E-1,1.4634122E-1,-7.872032E-2,3.3525395E-1,2.06232E-1,2.3049109E-2,1.0443738E-2,-8.725047E-2,5.4448124E-2,2.570687E-1,3.5393447E-1,4.6290133E-2,2.9554425E-2,4.493923E-3,-5.4662237E-3,-3.701025E-3,-1.5006162E-2,-4.4313283E-3,-1.600278E-2,-2.0633189E-2,-1.1713099E-2,-9.770161E-3,8.757948E-3,2.3849452E-5,-1.6565515E-2,1.2504679E-2,-9.910086E-3,-1.4967768E-2,-6.3522654E-3,-1.4703724E-3,-8.331559E-3,-1.1639545E-2,1.0162915E-2,6.740541E-3,-2.516711E-3,-1.3792808E-2,7.104275E-3,1.9104034E-2,-3.601325E-3,-8.440716E-3,5.9543643E-3,3.4536987E-3,2.0585408E-2,-3.5286366E-3,3.7387994E-3,6.324974E-3,1.3528402E-2,1.5758788E-2,1.4615725E-4,-3.5289687E-3,2.1614106E-2,2.4146907E-2,1.2830615E-2,-2.6013276E-3,-8.864542E-3,3.536607E-2,3.8779825E-3,2.3263287E-2,1.0998158E-2,-1.0024766E-2,-1.7630846E-3,8.1145195E-3,2.0813288E-3,2.620996E-2,5.055553E-3,3.6494132E-2,1.1121219E-2],"categories":[],"categories_nodes":[],"categories_segments":[],"categories_sizes":[],"default_left":[0,0,0,0,0,0,0,0,0,0,0,0,0,0,0,0,0,0,0,0,0,0,0,0,0,0,0,0,0,0,0,0,0,0,0,0,0,0,0,0,0,0,0,0,0,0,0,0,0,0,0,0,0,0,0,0,0,0,0,0,0,0,0,0,0,0,0,0,0,0,0,0,0,0,0,0,0,0,0,0,0,0,0,0,0,0,0,0,0,0,0,0,0,0,0,0,0,0,0,0,0,0,0,0,0,0,0,0,0,0,0,0,0,0,0,0,0],"id":3,"left_children":[1,3,5,7,9,11,13,15,17,19,21,23,25,27,29,31,33,35,37,39,41,43,45,47,49,51,53,55,57,59,61,63,65,67,69,71,73,75,77,79,81,83,85,87,89,91,93,95,-1,97,99,101,103,105,107,-1,-1,109,111,113,115,-1,-1,-1,-1,-1,-1,-1,-1,-1,-1,-1,-1,-1,-1,-1,-1,-1,-1,-1,-1,-1,-1,-1,-1,-1,-1,-1,-1,-1,-1,-1,-1,-1,-1,-1,-1,-1,-1,-1,-1,-1,-1,-1,-1,-1,-1,-1,-1,-1,-1,-1,-1,-1,-1,-1,-1],"loss_changes":[2.4385946E1,3.618412E0,5.4894276E0,6.102781E-1,7.099049E-1,1.531702E0,1.1352434E0,2.0954514E-1,4.149747E-1,5.396234E-1,4.224121E-1,8.722031E-1,4.8834753E-1,1.8229593E-1,2.2961044E-1,9.9660695E-2,6.979847E-2,3.2763433E-1,1.7070627E-1,3.043717E-1,3.6373726E-1,2.2126082E-1,2.8414524E-1,4.869864E-1,4.8360997E-1,4.6681356E-1,1.0958767E-1,2.2687793E-2,5.4650392E-2,6.245947E-2,2.916336E-2,2.8745672E-2,7.321513E-2,6.900406E-2,7.917881E-2,1.924591E-1,1.50344E-1,2.5553945E-1,1.2770319E-1,2.0817831E-1,2.1784687E-1,3.657329E-1,1.4211935E-1,1.8412167E-1,1.7344585E-1,1.3650507E-2,2.139429E-1,4.504876E-1,0E0,2.77218E-1,1.2589955E-1,3.6876202E-1,2.925273E-3,6.814194E-2,5.8270812E-2,0E0,0E0,2.7568527E-3,3.6988128E-3,1.999569E-2,5.5591583E-2,0E0,0E0,0E0,0E0,0E0,0E0,0E0,0E0,0E0,0E0,0E0,0E0,0E0,0E0,0E0,0E0,0E0,0E0,0E0,0E0,0E0,0E0,0E0,0E0,0E0,0E0,0E0,0E0,0E0,0E0,0E0,0E0,0E0,0E0,0E0,0E0,0E0,0E0,0E0,0E0,0E0,0E0,0E0,0E0,0E0,0E0,0E0,0E0,0E0,0E0,0E0,0E0,0E0,0E0,0E0,0E0],"parents":[2147483647,0,0,1,1,2,2,3,3,4,4,5,5,6,6,7,7,8,8,9,9,10,10,11,11,12,12,13,13,14,14,15,15,16,16,17,17,18,18,19,19,20,20,21,21,22,22,23,23,24,24,25,25,26,26,27,27,28,28,29,29,30,30,31,31,32,32,33,33,34,34,35,35,36,36,37,37,38,38,39,39,40,40,41,41,42,42,43,43,44,44,45,45,46,46,47,47,49,49,50,50,51,51,52,52,53,53,54,54,57,57,58,58,59,59,60,60],"right_children":[2,4,6,8,10,12,14,16,18,20,22,24,26,28,30,32,34,36,38,40,42,44,46,48,50,52,54,56,58,60,62,64,66,68,70,72,74,76,78,80,82,84,86,88,90,92,94,96,-1,98,100,102,104,106,108,-1,-1,110,112,114,116,-1,-1,-1,-1,-1,-1,-1,-1,-1,-1,-1,-1,-1,-1,-1,-1,-1,-1,-1,-1,-1,-1,-1,-1,-1,-1,-1,-1,-1,-1,-1,-1,-1,-1,-1,-1,-1,-1,-1,-1,-1,-1,-1,-1,-1,-1,-1,-1,-1,-1,-1,-1,-1,-1,-1,-1],"split_conditions":[5.2043405E0,2.8557744E0,1E0,1.5097675E0,1.8364938E2,8.930104E0,7.4979906E0,4.7031965E0,1.2475879E1,3.7546551E0,1.3E0,1E0,2.1884708E0,5.308619E-4,1.1950754E1,4.3172583E-2,2.8E1,4.7514133E1,6.4107E-2,1.355E2,1.596E2,7.3425345E0,1.8985821E0,4.8087116E1,2.359906E-1,1.6490195E-2,8.0782326E1,5.197021E-1,5.485759E-1,1.2441351E2,1.3078995E-1,3.1904793E-1,4.1405E-2,9.94E1,6.657E0,1E0,2.6E0,2.9E1,6.766E0,4.6257824E-2,6.6415673E-1,6.211247E0,1.0042461E-3,5.457515E-1,4.7243714E-1,6.834239E1,4.4990864E0,1E0,-1.3350846E-2,1.4647607E-4,6.3601003E0,4.378359E-2,2.7991638E0,1E0,1.5591459E-3,2.3049109E-2,1.0443738E-2,1.5934118E0,9.671366E0,1.09641E-1,2.510672E1,4.6290133E-2,2.9554425E-2,4.493923E-3,-5.4662237E-3,-3.701025E-3,-1.5006162E-2,-4.4313283E-3,-1.600278E-2,-2.0633189E-2,-1.1713099E-2,-9.770161E-3,8.757948E-3,2.3849452E-5,-1.6565515E-2,1.2504679E-2,-9.910086E-3,-1.4967768E-2,-6.3522654E-3,-1.4703724E-3,-8.331559E-3,-1.1639545E-2,1.0162915E-2,6.740541E-3,-2.516711E-3,-1.3792808E-2,7.104275E-3,1.9104034E-2,-3.601325E-3,-8.440716E-3,5.9543643E-3,3.4536987E-3,2.0585408E-2,-3.5286366E-3,3.7387994E-3,6.324974E-3,1.3528402E-2,1.5758788E-2,1.4615725E-4,-3.5289687E-3,2.1614106E-2,2.4146907E-2,1.2830615E-2,-2.6013276E-3,-8.864542E-3,3.536607E-2,3.8779825E-3,2.3263287E-2,1.0998158E-2,-1.0024766E-2,-1.7630846E-3,8.1145195E-3,2.0813288E-3,2.620996E-2,5.055553E-3,3.6494132E-2,1.1121219E-2],"split_indices":[0,0,101,0,30,0,0,2,2,0,52,60,3,13,0,33,21,1,4,50,51,2,109,2,44,28,1,6,6,110,44,7,4,51,39,85,55,20,39,41,9,2,16,9,24,1,0,66,0,12,1,26,109,57,13,0,0,3,1,4,109,0,0,0,0,0,0,0,0,0,0,0,0,0,0,0,0,0,0,0,0,0,0,0,0,0,0,0,0,0,0,0,0,0,0,0,0,0,0,0,0,0,0,0,0,0,0,0,0,0,0,0,0,0,0,0,0],"split_type":[0,0,0,0,0,0,0,0,0,0,0,0,0,0,0,0,0,0,0,0,0,0,0,0,0,0,0,0,0,0,0,0,0,0,0,0,0,0,0,0,0,0,0,0,0,0,0,0,0,0,0,0,0,0,0,0,0,0,0,0,0,0,0,0,0,0,0,0,0,0,0,0,0,0,0,0,0,0,0,0,0,0,0,0,0,0,0,0,0,0,0,0,0,0,0,0,0,0,0,0,0,0,0,0,0,0,0,0,0,0,0,0,0,0,0,0,0],"sum_hessian":[2.88E3,1.855E3,1.025E3,7.99E2,1.056E3,9E2,1.25E2,2.03E2,5.96E2,7.41E2,3.15E2,6.13E2,2.87E2,2E1,1.05E2,4.8E1,1.55E2,3.24E2,2.72E2,3.27E2,4.14E2,8.5E1,2.3E2,3.68E2,2.45E2,2.41E2,4.6E1,1.1E1,9E0,6.6E1,3.9E1,1E1,3.8E1,2.9E1,1.26E2,2.58E2,6.6E1,4.2E1,2.3E2,1.77E2,1.5E2,3.79E2,3.5E1,2.3E1,6.2E1,6E0,2.24E2,3.6E2,8E0,2.29E2,1.6E1,2.32E2,9E0,1.4E1,3.2E1,5E0,6E0,4E0,5E0,3.1E1,3.5E1,3E1,9E0,4E0,6E0,8E0,3E1,8E0,2.1E1,1.1E2,1.6E1,2.53E2,5E0,6.1E1,5E0,5E0,3.7E1,2.09E2,2.1E1,9.1E1,8.6E1,1.46E2,4E0,4.8E1,3.31E2,3.2E1,3E0,1.9E1,4E0,9E0,5.3E1,1E0,5E0,1.72E2,5.2E1,1.56E2,2.04E2,1.1E1,2.18E2,2E0,1.4E1,3.5E1,1.97E2,2E0,7E0,1.3E1,1E0,2.4E1,8E0,3E0,1E0,2E0,3E0,3E1,1E0,3.3E1,2E0],"tree_param":{"num_deleted":"0","num_feature":"111","num_nodes":"117","size_leaf_vector":"1"}},{"base_weights":[3.429057E-4,-4.9375176E-2,1.4015812E-1,-9.2499115E-2,2.018924E-4,1.09651424E-1,3.041718E-1,-1.3966697E-1,-7.511773E-2,-6.9710943E-3,1.19961545E-1,1.0095406E-1,2.2221324E-1,9.935749E-2,3.26421E-1,-9.141931E-2,-1.6105798E-1,-8.885482E-2,-3.260188E-2,-1.6719177E-2,4.669178E-2,1.3525344E-1,-6.306655E-2,9.2392504E-2,1.9046575E-1,3.098627E-1,1.7692244E-1,1.2820035E-2,1.3639415E-2,3.0218828E-1,4.7653284E-2,-1.092574E-1,3.0874457E-2,-1.6744952E-1,-7.309494E-2,-7.017199E-2,-1.1475722E-1,-4.1478716E-2,6.1922934E-2,-3.8889207E-2,6.002506E-3,1.0452346E-1,7.60064E-3,1.50654E-1,-3.9642625E-2,9.357835E-3,-1.2562237E-2,9.9945195E-2,-2.4059659E-2,2.0518507E-1,-3.378245E-2,6.5072896E-3,3.4523824E-1,-4.6555116E-3,1.8563317E-1,-3.4586624E-3,3.3318356E-3,2.5331327E-1,3.4374946E-1,-7.423043E-3,-1.4251699E-2,5.9840414E-3,-4.9259053E-3,-9.806945E-3,-1.7481826E-2,-7.8726356E-4,-9.417966E-3,-9.69962E-3,-4.587668E-3,-1.3624688E-2,-7.356713E-3,-4.949521E-3,5.4277875E-3,1.7403314E-6,1.5920056E-2,-2.8616134E-3,-1.0437327E-2,-3.307502E-4,1.0105909E-2,2.289307E-2,6.709264E-3,-1.4005644E-3,1.04353875E-2,1.620302E-2,-1.4991492E-3,4.25912E-3,-7.0848884E-3,1.4271244E-2,7.938042E-3,-1.0116015E-2,4.2133364E-3,1.1952287E-2,2.4428109E-2,1.9358516E-3,-5.7948944E-3,3.7989516E-2,1.1463579E-2,1.9244382E-2,5.7919244E-3,3.007984E-2,2.0699842E-2,3.5016954E-2,1.307254E-2],"categories":[],"categories_nodes":[],"categories_segments":[],"categories_sizes":[],"default_left":[0,0,0,0,0,0,0,0,0,0,0,0,0,0,0,0,0,0,0,0,0,0,0,0,0,0,0,0,0,0,0,0,0,0,0,0,0,0,0,0,0,0,0,0,0,0,0,0,0,0,0,0,0,0,0,0,0,0,0,0,0,0,0,0,0,0,0,0,0,0,0,0,0,0,0,0,0,0,0,0,0,0,0,0,0,0,0,0,0,0,0,0,0,0,0,0,0,0,0,0,0,0,0],"id":4,"left_children":[1,3,5,7,9,11,13,15,17,19,21,23,25,27,29,31,33,35,37,39,41,43,45,47,49,51,53,55,-1,57,-1,59,61,63,65,67,69,71,73,75,77,79,81,83,85,-1,-1,87,89,91,93,-1,95,-1,97,-1,-1,99,101,-1,-1,-1,-1,-1,-1,-1,-1,-1,-1,-1,-1,-1,-1,-1,-1,-1,-1,-1,-1,-1,-1,-1,-1,-1,-1,-1,-1,-1,-1,-1,-1,-1,-1,-1,-1,-1,-1,-1,-1,-1,-1,-1,-1],"loss_changes":[2.0033741E1,4.545318E0,3.7493029E0,9.2166996E-1,8.512803E-1,6.031418E-1,5.052891E-1,3.0005646E-1,4.8361158E-1,4.8988867E-1,1.652655E-1,4.3838644E-1,1.2381554E-1,3.9917156E-2,2.4158382E-1,2.1279609E-1,1.0582638E-1,2.963395E-1,1.7458011E-1,3.9919585E-1,3.2474723E-1,1.4603412E-1,6.0750782E-2,4.8174715E-1,1.7527139E-1,9.876835E-2,7.093501E-2,6.011154E-3,0E0,1.0386658E-1,0E0,8.727944E-2,3.3122547E-2,8.254814E-2,2.1261655E-2,2.3537683E-1,2.2188902E-1,1.4700133E-1,1.0839364E-1,2.6677495E-1,3.472454E-1,2.5472695E-1,1.8333313E-1,9.2880845E-2,1.5848588E-2,0E0,0E0,4.3897486E-1,1.777817E-1,1.3155723E-1,6.258729E-3,0E0,5.235398E-2,0E0,1.5818119E-2,0E0,0E0,4.110074E-2,1.9870281E-2,0E0,0E0,0E0,0E0,0E0,0E0,0E0,0E0,0E0,0E0,0E0,0E0,0E0,0E0,0E0,0E0,0E0,0E0,0E0,0E0,0E0,0E0,0E0,0E0,0E0,0E0,0E0,0E0,0E0,0E0,0E0,0E0,0E0,0E0,0E0,0E0,0E0,0E0,0E0,0E0,0E0,0E0,0E0,0E0],"parents":[2147483647,0,0,1,1,2,2,3,3,4,4,5,5,6,6,7,7,8,8,9,9,10,10,11,11,12,12,13,13,14,14,15,15,16,16,17,17,18,18,19,19,20,20,21,21,22,22,23,23,24,24,25,25,26,26,27,27,29,29,31,31,32,32,33,33,34,34,35,35,36,36,37,37,38,38,39,39,40,40,41,41,42,42,43,43,44,44,47,47,48,48,49,49,50,50,52,52,54,54,57,57,58,58],"right_children":[2,4,6,8,10,12,14,16,18,20,22,24,26,28,30,32,34,36,38,40,42,44,46,48,50,52,54,56,-1,58,-1,60,62,64,66,68,70,72,74,76,78,80,82,84,86,-1,-1,88,90,92,94,-1,96,-1,98,-1,-1,100,102,-1,-1,-1,-1,-1,-1,-1,-1,-1,-1,-1,-1,-1,-1,-1,-1,-1,-1,-1,-1,-1,-1,-1,-1,-1,-1,-1,-1,-1,-1,-1,-1,-1,-1,-1,-1,-1,-1,-1,-1,-1,-1,-1,-1],"split_conditions":[6.2635026E0,3.4910035E0,1E0,1.787599E0,2.210403E0,1.7439148E1,7.4979906E0,6.418925E0,4.5822403E1,1.3473904E-4,3.738205E2,9.545657E-1,6.468907E-2,1.465989E-1,1E0,1.9700362E2,2.2585309E0,2.312E0,9.611124E1,4.619064E0,2.2789897E-2,2.2753043E0,1.0547883E1,2.9569132E1,3.3624944E-1,1.7463016E2,2.0619194E1,3.0410297E1,1.3639415E-2,1.0987775E1,4.7653284E-2,1.4E0,6.1669976E-1,7.11E1,1.4489884E1,5.0179887E-1,1E0,3.5E2,2.6007946E0,2.374003E1,4.655E2,8.78E-1,2.727605E-1,8.383706E0,1.48971615E1,9.357835E-3,-1.2562237E-2,1.5E0,9E-1,2.2016492E0,1.38937E-1,6.5072896E-3,1.7550459E1,-4.6555116E-3,2.1202625E-1,-3.4586624E-3,3.3318356E-3,1.469E2,4.0762857E-1,-7.423043E-3,-1.4251699E-2,5.9840414E-3,-4.9259053E-3,-9.806945E-3,-1.7481826E-2,-7.8726356E-4,-9.417966E-3,-9.69962E-3,-4.587668E-3,-1.3624688E-2,-7.356713E-3,-4.949521E-3,5.4277875E-3,1.7403314E-6,1.5920056E-2,-2.8616134E-3,-1.0437327E-2,-3.307502E-4,1.0105909E-2,2.289307E-2,6.709264E-3,-1.4005644E-3,1.04353875E-2,1.620302E-2,-1.4991492E-3,4.25912E-3,-7.0848884E-3,1.4271244E-2,7.938042E-3,-1.0116015E-2,4.2133364E-3,1.1952287E-2,2.4428109E-2,1.9358516E-3,-5.7948944E-3,3.7989516E-2,1.1463579E-2,1.9244382E-2,5.7919244E-3,3.007984E-2,2.0699842E-2,3.5016954E-2,1.307254E-2],"split_indices":[0,0,101,0,3,0,0,2,1,36,30,24,26,11,66,30,3,38,1,0,41,3,2,2,41,37,1,1,0,0,0,55,7,50,2,24,62,21,0,2,53,38,11,68,2,0,0,52,55,3,4,0,109,0,44,0,0,51,7,0,0,0,0,0,0,0,0,0,0,0,0,0,0,0,0,0,0,0,0,0,0,0,0,0,0,0,0,0,0,0,0,0,0,0,0,0,0,0,0,0,0,0,0],"split_type":[0,0,0,0,0,0,0,0,0,0,0,0,0,0,0,0,0,0,0,0,0,0,0,0,0,0,0,0,0,0,0,0,0,0,0,0,0,0,0,0,0,0,0,0,0,0,0,0,0,0,0,0,0,0,0,0,0,0,0,0,0,0,0,0,0,0,0,0,0,0,0,0,0,0,0,0,0,0,0,0,0,0,0,0,0,0,0,0,0,0,0,0,0,0,0,0,0,0,0,0,0,0,0],"sum_hessian":[2.88E3,2.125E3,7.55E2,1.136E3,9.89E2,6.38E2,1.17E2,3.04E2,8.32E2,9.34E2,5.5E1,5.94E2,4.4E1,1.2E1,1.05E2,9.5E1,2.09E2,6.28E2,2.04E2,7.91E2,1.43E2,5.1E1,4E0,5.44E2,5E1,1.3E1,3.1E1,4E0,8E0,9.3E1,1.2E1,8.3E1,1.2E1,1.94E2,1.5E1,3.67E2,2.61E2,1.87E2,1.7E1,4E2,3.91E2,5.7E1,8.6E1,4.7E1,4E0,1E0,3E0,5.11E2,3.3E1,4.7E1,3E0,2E0,1.1E1,1E0,3E1,1E0,3E0,4.6E1,4.7E1,4.2E1,4.1E1,9E0,3E0,2E1,1.74E2,4E0,1.1E1,1.73E2,1.94E2,1.7E2,9.1E1,1.73E2,1.4E1,1.1E1,6E0,3.47E2,5.3E1,3.57E2,3.4E1,1.2E1,4.5E1,7.1E1,1.5E1,4.4E1,3E0,1E0,3E0,1.64E2,3.47E2,1.5E1,1.8E1,1.6E1,3.1E1,1E0,2E0,9E0,2E0,2.8E1,2E0,2E1,2.6E1,4.5E1,2E0],"tree_param":{"num_deleted":"0","num_feature":"111","num_nodes":"103","size_leaf_vector":"1"}},{"base_weights":[3.9608925E-4,-4.445327E-2,1.2651956E-1,-8.331691E-2,2.2593288E-4,9.888217E-2,2.7511084E-1,-1.11134954E-1,-5.79687E-2,-1.1230355E-2,6.395478E-2,8.923379E-2,1.8417248E-1,1.2113053E-1,2.99829E-1,-1.2677234E-1,-7.685025E-2,-6.4999852E-3,-7.1174346E-2,-2.3323303E-2,2.7839508E-2,9.609181E-2,-2.4610203E-2,8.103377E-2,1.7205685E-1,2.0230094E-1,6.604869E-2,1.8347998E-1,5.2902974E-2,2.8458744E-1,5.355496E-2,-1.2898886E-1,1.0828569E-2,-8.147922E-2,6.479789E-2,2.4682209E-2,-7.9644606E-2,-9.619593E-2,-5.2146494E-2,-2.911227E-2,5.799538E-2,-8.570753E-2,3.8235467E-2,1.9794048E-1,7.556661E-2,2.4504784E-2,-1.0288392E-1,8.77789E-2,-3.759062E-2,1.8542448E-1,-3.1368967E-2,2.723406E-1,1.5777056E-1,1.145032E-2,-5.3064525E-3,2.5668725E-2,1.25894025E-2,-3.28573E-3,6.608271E-2,1.1839803E-2,2.904623E-1,-1.0443441E-2,-1.4896966E-2,-9.089542E-3,-2.1587135E-3,7.434306E-3,8.536026E-4,2.4516575E-4,1.2317705E-2,-1.416338E-2,-4.4224444E-3,-1.13726985E-2,-4.7833007E-3,-5.53387E-3,1.2938487E-2,-3.4131631E-3,5.2889767E-3,-3.5214815E-3,1.2651532E-2,1.9745599E-3,-1.3129181E-2,5.4067294E-3,-2.1606858E-3,2.0790206E-2,1.429686E-3,-8.434264E-4,9.6959295E-3,6.5228785E-3,-1.2211333E-2,-3.133685E-3,-1.1698426E-2,7.090942E-3,1.3216011E-2,-7.5519285E-3,1.2038915E-2,1.1917806E-2,2.2848701E-2,1.8390596E-3,-5.408569E-3,7.5958767E-3,3.0252803E-2,4.8412276E-3,1.7802848E-2,1.5480615E-3,-4.4227364E-3,7.5077075E-3,2.306829E-3,2.9915864E-2,1.6066872E-2],"categories":[],"categories_nodes":[],"categories_segments":[],"categories_sizes":[],"default_left":[0,0,0,0,0,0,0,0,0,0,0,0,0,0,0,0,0,0,0,0,0,0,0,0,0,0,0,0,0,0,0,0,0,0,0,0,0,0,0,0,0,0,0,0,0,0,0,0,0,0,0,0,0,0,0,0,0,0,0,0,0,0,0,0,0,0,0,0,0,0,0,0,0,0,0,0,0,0,0,0,0,0,0,0,0,0,0,0,0,0,0,0,0,0,0,0,0,0,0,0,0,0,0,0,0,0,0,0,0],"id":5,"left_children":[1,3,5,7,9,11,13,15,17,19,21,23,25,27,29,31,33,35,37,39,41,43,45,47,49,51,53,55,57,59,-1,61,-1,63,65,67,69,71,73,75,77,79,81,83,85,87,89,91,93,95,97,99,101,-1,103,-1,-1,-1,105,-1,107,-1,-1,-1,-1,-1,-1,-1,-1,-1,-1,-1,-1,-1,-1,-1,-1,-1,-1,-1,-1,-1,-1,-1,-1,-1,-1,-1,-1,-1,-1,-1,-1,-1,-1,-1,-1,-1,-1,-1,-1,-1,-1,-1,-1,-1,-1,-1,-1],"loss_changes":[1.6302164E1,3.691597E0,3.0774431E0,7.953E-1,7.235133E-1,5.0940704E-1,4.128027E-1,2.8030014E-1,4.0530515E-1,3.9752394E-1,4.3214327E-1,3.772483E-1,1.2368822E-1,6.686446E-2,2.1045685E-1,2.0674038E-1,1.1805761E-1,2.825054E-1,2.2113442E-1,3.0391064E-1,2.3818268E-1,2.1708381E-1,1.6014208E-1,4.241717E-1,1.4450216E-1,1.2857175E-1,3.5182387E-2,5.626023E-3,1.3474273E-2,6.031418E-2,0E0,1.6449928E-1,0E0,9.221828E-2,2.5875792E-3,1.9019274E-1,7.497601E-2,1.6752219E-1,1.647799E-1,2.4876398E-1,2.7908576E-1,8.431151E-2,1.7454487E-1,2.995652E-2,1.697362E-1,1.6320805E-1,1.2475491E-2,3.6347532E-1,1.8285859E-1,1.097008E-1,5.516164E-3,9.5585704E-2,7.113451E-2,0E0,4.7299247E-3,0E0,0E0,0E0,1.7500855E-3,0E0,5.6906223E-2,0E0,0E0,0E0,0E0,0E0,0E0,0E0,0E0,0E0,0E0,0E0,0E0,0E0,0E0,0E0,0E0,0E0,0E0,0E0,0E0,0E0,0E0,0E0,0E0,0E0,0E0,0E0,0E0,0E0,0E0,0E0,0E0,0E0,0E0,0E0,0E0,0E0,0E0,0E0,0E0,0E0,0E0,0E0,0E0,0E0,0E0,0E0,0E0],"parents":[2147483647,0,0,1,1,2,2,3,3,4,4,5,5,6,6,7,7,8,8,9,9,10,10,11,11,12,12,13,13,14,14,15,15,16,16,17,17,18,18,19,19,20,20,21,21,22,22,23,23,24,24,25,25,26,26,27,27,28,28,29,29,31,31,33,33,34,34,35,35,36,36,37,37,38,38,39,39,40,40,41,41,42,42,43,43,44,44,45,45,46,46,47,47,48,48,49,49,50,50,51,51,52,52,54,54,58,58,60,60],"right_children":[2,4,6,8,10,12,14,16,18,20,22,24,26,28,30,32,34,36,38,40,42,44,46,48,50,52,54,56,58,60,-1,62,-1,64,66,68,70,72,74,76,78,80,82,84,86,88,90,92,94,96,98,100,102,-1,104,-1,-1,-1,106,-1,108,-1,-1,-1,-1,-1,-1,-1,-1,-1,-1,-1,-1,-1,-1,-1,-1,-1,-1,-1,-1,-1,-1,-1,-1,-1,-1,-1,-1,-1,-1,-1,-1,-1,-1,-1,-1,-1,-1,-1,-1,-1,-1,-1,-1,-1,-1,-1,-1],"split_conditions":[6.2635026E0,3.4910035E0,1E0,2.3100867E0,6.3370353E-1,1.4746898E1,7.941433E0,4.460152E1,3.6690384E-2,1.8364938E2,2.5116957E1,9.545657E-1,2E0,-1.1778158E1,3.075851E-1,1E0,9.718899E1,1.929535E1,1.5145578E0,4.54E2,1.3075094E-1,-4.472038E-2,1E0,1.883E2,3.3624944E-1,3.2841328E-1,8.6E1,7.5668E-2,1.5006292E0,4.5809296E1,5.355496E-2,7.92E1,1.0828569E-2,5.351488E-1,1.8009531E0,1.0476221E0,2.1994965E0,4.870889E-1,1E0,5.573669E-1,1.1558019E-2,3.933491E0,3.6876634E-1,5.257418E-1,-2.768922E-1,2.2203177E-2,3.3411217E1,-5.9474193E-2,2.0469859E-1,2.2310312E0,1.38937E-1,-3.0911214E0,6.689997E-4,1.145032E-2,2.722966E1,2.5668725E-2,1.25894025E-2,-3.28573E-3,1.9704299E-1,1.1839803E-2,2.7058753E-1,-1.0443441E-2,-1.4896966E-2,-9.089542E-3,-2.1587135E-3,7.434306E-3,8.536026E-4,2.4516575E-4,1.2317705E-2,-1.416338E-2,-4.4224444E-3,-1.13726985E-2,-4.7833007E-3,-5.53387E-3,1.2938487E-2,-3.4131631E-3,5.2889767E-3,-3.5214815E-3,1.2651532E-2,1.9745599E-3,-1.3129181E-2,5.4067294E-3,-2.1606858E-3,2.0790206E-2,1.429686E-3,-8.434264E-4,9.6959295E-3,6.5228785E-3,-1.2211333E-2,-3.133685E-3,-1.1698426E-2,7.090942E-3,1.3216011E-2,-7.5519285E-3,1.2038915E-2,1.1917806E-2,2.2848701E-2,1.8390596E-3,-5.408569E-3,7.5958767E-3,3.0252803E-2,4.8412276E-3,1.7802848E-2,1.5480615E-3,-4.4227364E-3,7.5077075E-3,2.306829E-3,2.9915864E-2,1.6066872E-2],"split_indices":[0,0,101,0,6,0,0,1,33,30,2,24,55,68,8,64,1,2,3,21,8,41,76,51,41,7,21,5,3,110,0,51,0,31,0,24,3,25,104,32,49,0,10,8,42,43,2,40,43,3,4,70,14,0,2,0,0,0,8,0,11,0,0,0,0,0,0,0,0,0,0,0,0,0,0,0,0,0,0,0,0,0,0,0,0,0,0,0,0,0,0,0,0,0,0,0,0,0,0,0,0,0,0,0,0,0,0,0,0],"split_type":[0,0,0,0,0,0,0,0,0,0,0,0,0,0,0,0,0,0,0,0,0,0,0,0,0,0,0,0,0,0,0,0,0,0,0,0,0,0,0,0,0,0,0,0,0,0,0,0,0,0,0,0,0,0,0,0,0,0,0,0,0,0,0,0,0,0,0,0,0,0,0,0,0,0,0,0,0,0,0,0,0,0,0,0,0,0,0,0,0,0,0,0,0,0,0,0,0,0,0,0,0,0,0,0,0,0,0,0,0],"sum_hessian":[2.88E3,2.125E3,7.55E2,1.136E3,9.89E2,6.38E2,1.17E2,5.4E2,5.96E2,8.39E2,1.5E2,5.75E2,6.3E1,1.7E1,1E2,3.69E2,1.71E2,1.22E2,4.74E2,6.41E2,1.98E2,1.1E2,4E1,5.25E2,5E1,5.4E1,9E0,8E0,9E0,9.6E1,4E0,3.66E2,3E0,1.66E2,5E0,8.6E1,3.6E1,2.03E2,2.71E2,5.99E2,4.2E1,1.6E1,1.82E2,1.7E1,9.3E1,2.5E1,1.5E1,4.97E2,2.8E1,4.7E1,3E0,1.9E1,3.5E1,5E0,4E0,2E0,6E0,1E0,8E0,4E0,9.2E1,1.67E2,1.99E2,1.43E2,2.3E1,4E0,1E0,7.1E1,1.5E1,1.2E1,2.4E1,1.48E2,5.5E1,2.67E2,4E0,5.65E2,3.4E1,1.8E1,2.4E1,5E0,1.1E1,1.44E2,3.8E1,1.6E1,1E0,1.9E1,7.4E1,2E1,5E0,3E0,1.2E1,3.62E2,1.35E2,2.3E1,5E0,2E1,2.7E1,1E0,2E0,3E0,1.6E1,6E0,2.9E1,3E0,1E0,6E0,2E0,8.5E1,7E0],"tree_param":{"num_deleted":"0","num_feature":"111","num_nodes":"109","size_leaf_vector":"1"}},{"base_weights":[4.4763696E-4,-4.892698E-2,9.4517775E-2,-8.775328E-2,-2.0411884E-2,7.312434E-2,2.4506874E-1,-1.2437809E-1,-7.509128E-2,-4.4561695E-2,-7.211526E-4,5.058351E-2,1.18499964E-1,1.20766155E-1,2.7094886E-1,-1.04786456E-1,-1.6287462E-1,-6.051508E-2,-1.0852329E-1,-7.913818E-2,-2.5272308E-2,5.354843E-2,-1.7129404E-2,2.8267378E-2,1.00389816E-1,-2.6784956E-2,1.2602104E-1,1.9065066E-1,5.2343406E-2,2.567248E-1,4.9270567E-2,-5.6867223E-2,-1.224271E-1,-1.6817124E-1,-8.099712E-3,-2.6581114E-2,-7.787755E-2,-3.2175113E-3,-1.187774E-1,-9.3264885E-2,-2.7484423E-2,5.2271843E-2,-3.5428956E-2,3.5684176E-2,1.3429663E-1,-9.698708E-3,-1.5264511E-1,1.14283726E-1,1.7971879E-2,9.000372E-2,2.6795304E-1,-7.120109E-2,1.1315971E-2,1.9613513E-1,9.9098146E-2,1.1140732E-2,2.634612E-1,7.715703E-2,-5.6087673E-3,2.1607283E-1,2.891546E-1,-8.40061E-3,3.0236098E-3,-1.3526968E-2,-4.063454E-3,-1.7348902E-2,-8.962384E-3,3.0744227E-3,-3.7257988E-3,8.138369E-4,-8.572935E-3,-9.54873E-3,7.0920074E-3,-8.818539E-3,-1.3258994E-2,4.529128E-3,-9.885634E-3,5.761038E-3,-5.881402E-3,1.1538762E-2,-1.359508E-3,-4.050317E-3,9.2340745E-3,-5.4157204E-3,5.6113927E-3,1.6959343E-2,3.8091782E-3,-2.9602306E-4,-1.3759523E-2,-1.7261262E-3,-1.8736396E-2,1.3308214E-2,-2.3820167E-3,6.7149713E-3,1.9324674E-4,2.7682533E-2,8.153248E-3,5.9257555E-3,3.127197E-2,-1.1073515E-3,-7.5660557E-3,2.395375E-2,1.4508575E-2,7.806163E-3,1.640875E-2,2.8925126E-2,8.015046E-3,2.7789138E-3,9.219634E-3,1.3888937E-2,2.4149915E-2,3.1440493E-2,2.0759342E-2],"categories":[],"categories_nodes":[],"categories_segments":[],"categories_sizes":[],"default_left":[0,0,0,0,0,0,0,0,0,0,0,0,0,0,0,0,0,0,0,0,0,0,0,0,0,0,0,0,0,0,0,0,0,0,0,0,0,0,0,0,0,0,0,0,0,0,0,0,0,0,0,0,0,0,0,0,0,0,0,0,0,0,0,0,0,0,0,0,0,0,0,0,0,0,0,0,0,0,0,0,0,0,0,0,0,0,0,0,0,0,0,0,0,0,0,0,0,0,0,0,0,0,0,0,0,0,0,0,0,0,0,0,0],"id":6,"left_children":[1,3,5,7,9,11,13,15,17,19,21,23,25,27,29,31,33,35,37,39,41,43,45,47,49,51,53,55,57,59,-1,61,63,65,-1,67,69,71,73,75,77,79,81,83,85,87,89,91,93,95,97,99,-1,101,103,-1,105,107,-1,109,111,-1,-1,-1,-1,-1,-1,-1,-1,-1,-1,-1,-1,-1,-1,-1,-1,-1,-1,-1,-1,-1,-1,-1,-1,-1,-1,-1,-1,-1,-1,-1,-1,-1,-1,-1,-1,-1,-1,-1,-1,-1,-1,-1,-1,-1,-1,-1,-1,-1,-1,-1,-1],"loss_changes":[1.338594E1,2.0906954E0,3.1771145E0,3.6165476E-1,5.1876837E-1,8.838458E-1,3.629651E-1,1.3679194E-1,2.843578E-1,3.248099E-1,5.369795E-1,6.451576E-1,3.180728E-1,9.999958E-2,1.920929E-1,1.0969293E-1,1.5434742E-2,2.4420607E-1,1.9398499E-1,1.2513375E-1,2.5072992E-1,1.9715863E-1,4.6474943E-1,3.5572088E-1,2.8914213E-1,1.0129412E-1,4.9778652E-1,3.411576E-2,3.930493E-2,6.539917E-2,0E0,9.4731554E-2,9.9546075E-2,1.0348558E-2,0E0,8.866939E-2,1.8710244E-1,1.2306317E-1,5.760622E-2,1.1061537E-1,1.07361756E-1,1.5538666E-1,1.852727E-1,2.1594962E-1,7.843301E-2,3.787969E-1,1.09574735E-1,1.1480379E-1,2.8540984E-1,2.4805641E-1,7.4894965E-2,2.3798048E-3,0E0,1.3142133E-1,2.6062107E-1,0E0,4.543662E-4,5.6049973E-3,0E0,5.8695555E-2,3.976345E-2,0E0,0E0,0E0,0E0,0E0,0E0,0E0,0E0,0E0,0E0,0E0,0E0,0E0,0E0,0E0,0E0,0E0,0E0,0E0,0E0,0E0,0E0,0E0,0E0,0E0,0E0,0E0,0E0,0E0,0E0,0E0,0E0,0E0,0E0,0E0,0E0,0E0,0E0,0E0,0E0,0E0,0E0,0E0,0E0,0E0,0E0,0E0,0E0,0E0,0E0,0E0,0E0],"parents":[2147483647,0,0,1,1,2,2,3,3,4,4,5,5,6,6,7,7,8,8,9,9,10,10,11,11,12,12,13,13,14,14,15,15,16,16,17,17,18,18,19,19,20,20,21,21,22,22,23,23,24,24,25,25,26,26,27,27,28,28,29,29,31,31,32,32,33,33,35,35,36,36,37,37,38,38,39,39,40,40,41,41,42,42,43,43,44,44,45,45,46,46,47,47,48,48,49,49,50,50,51,51,53,53,54,54,56,56,57,57,59,59,60,60],"right_children":[2,4,6,8,10,12,14,16,18,20,22,24,26,28,30,32,34,36,38,40,42,44,46,48,50,52,54,56,58,60,-1,62,64,66,-1,68,70,72,74,76,78,80,82,84,86,88,90,92,94,96,98,100,-1,102,104,-1,106,108,-1,110,112,-1,-1,-1,-1,-1,-1,-1,-1,-1,-1,-1,-1,-1,-1,-1,-1,-1,-1,-1,-1,-1,-1,-1,-1,-1,-1,-1,-1,-1,-1,-1,-1,-1,-1,-1,-1,-1,-1,-1,-1,-1,-1,-1,-1,-1,-1,-1,-1,-1,-1,-1,-1],"split_conditions":[5.3233852E0,2.8557744E0,1E0,1.5097675E0,1E0,8.930104E0,7.941433E0,1E0,1.5459362E1,3.6319585E0,7.8866367E0,1E0,-1.0164461E1,-1.232744E1,3.075851E-1,4.5131255E-2,2.546696E-1,9E-1,3.5453513E-2,1.5756743E0,-8.069252E0,-6.553557E-2,1E0,6.568497E0,1E0,2.7265458E-4,1.199E2,1.5062971E0,3.0977276E-1,1.0987775E1,4.9270567E-2,5.9182744E-4,5.793826E-1,1.675E2,-8.099712E-3,4.102727E0,-1.0401445E1,4.9017763E-1,3.3796806E-2,1.910514E-4,3.0587868E-5,1.7876662E2,1E0,-1.0108812E-1,-5.9292044E-2,1E0,1.029E2,1.869E2,5.4107107E-2,-9.548594E0,6.5445685E0,1.1455298E1,1.1315971E-2,5.685318E-1,4.70669E-1,1.1140732E-2,7.681135E0,1.465989E-1,-5.6087673E-3,7.833166E-2,3.5608697E-1,-8.40061E-3,3.0236098E-3,-1.3526968E-2,-4.063454E-3,-1.7348902E-2,-8.962384E-3,3.0744227E-3,-3.7257988E-3,8.138369E-4,-8.572935E-3,-9.54873E-3,7.0920074E-3,-8.818539E-3,-1.3258994E-2,4.529128E-3,-9.885634E-3,5.761038E-3,-5.881402E-3,1.1538762E-2,-1.359508E-3,-4.050317E-3,9.2340745E-3,-5.4157204E-3,5.6113927E-3,1.6959343E-2,3.8091782E-3,-2.9602306E-4,-1.3759523E-2,-1.7261262E-3,-1.8736396E-2,1.3308214E-2,-2.3820167E-3,6.7149713E-3,1.9324674E-4,2.7682533E-2,8.153248E-3,5.9257555E-3,3.127197E-2,-1.1073515E-3,-7.5660557E-3,2.395375E-2,1.4508575E-2,7.806163E-3,1.640875E-2,2.8925126E-2,8.015046E-3,2.7789138E-3,9.219634E-3,1.3888937E-2,2.4149915E-2,3.1440493E-2,2.0759342E-2],"split_indices":[0,0,101,0,66,0,0,60,2,0,2,62,70,68,8,33,42,55,26,3,70,40,56,18,75,15,53,3,7,0,0,17,31,51,0,2,70,24,34,14,36,37,86,43,43,76,51,54,26,70,0,0,0,7,32,0,0,11,0,40,7,0,0,0,0,0,0,0,0,0,0,0,0,0,0,0,0,0,0,0,0,0,0,0,0,0,0,0,0,0,0,0,0,0,0,0,0,0,0,0,0,0,0,0,0,0,0,0,0,0,0,0,0],"split_type":[0,0,0,0,0,0,0,0,0,0,0,0,0,0,0,0,0,0,0,0,0,0,0,0,0,0,0,0,0,0,0,0,0,0,0,0,0,0,0,0,0,0,0,0,0,0,0,0,0,0,0,0,0,0,0,0,0,0,0,0,0,0,0,0,0,0,0,0,0,0,0,0,0,0,0,0,0,0,0,0,0,0,0,0,0,0,0,0,0,0,0,0,0,0,0,0,0,0,0,0,0,0,0,0,0,0,0,0,0,0,0,0,0],"sum_hessian":[2.88E3,1.889E3,9.91E2,7.99E2,1.09E3,8.69E2,1.22E2,2.03E2,5.96E2,4.89E2,6.01E2,5.82E2,2.87E2,2.2E1,1E2,1.37E2,6.6E1,4.17E2,1.79E2,1.74E2,3.15E2,1.39E2,4.62E2,4.03E2,1.79E2,1.4E1,2.73E2,1E1,1.2E1,9.6E1,4E0,3.8E1,9.9E1,6.1E1,5E0,1.42E2,2.75E2,1.6E1,1.63E2,1.36E2,3.8E1,3.6E1,2.79E2,1.15E2,2.4E1,4.39E2,2.3E1,4.2E1,3.61E2,1.7E2,9E0,1.1E1,3E0,7.4E1,1.99E2,6E0,4E0,1E1,2E0,4.6E1,5E1,2.9E1,9E0,8.5E1,1.4E1,5.6E1,5E0,2.2E1,1.2E2,2.3E1,2.52E2,7E0,9E0,5.3E1,1.1E2,5E0,1.31E2,1E1,2.8E1,1.8E1,1.8E1,2.69E2,1E1,2.1E1,9.4E1,1.7E1,7E0,4.18E2,2.1E1,5E0,1.8E1,3.7E1,5E0,8.8E1,2.73E2,6E0,1.64E2,2E0,7E0,1E0,1E1,3.8E1,3.6E1,1.52E2,4.7E1,3E0,1E0,3E0,7E0,1.3E1,3.3E1,3.6E1,1.4E1],"tree_param":{"num_deleted":"0","num_feature":"111","num_nodes":"113","size_leaf_vector":"1"}},{"base_weights":[4.9179385E-4,-4.531453E-2,8.335344E-2,-8.002114E-2,-2.0303097E-2,6.483075E-2,2.1514383E-1,-9.423366E-2,-5.1232263E-2,-4.200698E-2,-3.0646895E-3,3.896122E-2,9.802083E-2,7.020926E-2,2.4182764E-1,-1.139902E-1,-7.235312E-2,-3.9423104E-2,-9.980608E-2,-7.08245E-2,-2.4206325E-2,4.7774933E-2,-1.882825E-2,1.7065786E-2,8.396828E-2,1.09588966E-1,-4.250903E-3,1.3507505E-1,-1.4650616E-2,2.2146086E-1,3.7049294E-1,3.6722103E-3,-1.19933166E-1,-8.628459E-2,-1.657435E-2,-8.858078E-2,-2.5479615E-2,-1.4888339E-1,-7.853883E-2,-8.61074E-2,-2.988001E-2,4.022297E-2,-3.2688525E-2,8.8982515E-2,1.77722E-2,-3.9823845E-2,2.0918613E-2,4.1563764E-2,-1.8325387E-2,6.479585E-2,1.4684395E-1,1.16284944E-1,3.2548795E-3,4.6787072E-2,-8.692193E-2,1.8117193E-2,7.6267E-2,-7.4425496E-2,3.7603553E-2,1.8284775E-1,2.5465575E-1,3.9610386E-2,1.5308857E-2,3.8151324E-3,-4.8658494E-3,-1.6789364E-2,-1.1190393E-2,6.9192247E-3,-8.98287E-3,6.0836026E-3,-5.0518564E-3,-1.0391149E-2,3.094253E-3,-4.8170006E-3,6.7877385E-4,-6.11478E-3,-1.7786285E-2,-1.0861862E-2,-5.0448575E-3,1.4700117E-2,-8.9009E-3,5.232861E-3,-5.3795595E-3,9.6567E-3,-1.2307111E-3,2.2218875E-3,-4.3223957E-3,1.3157819E-2,4.7599482E-3,-7.47313E-3,3.4227388E-3,-9.6362823E-4,-6.6201547E-3,-8.242537E-4,6.965791E-3,3.1395503E-3,1.5096973E-2,5.641923E-3,-3.4139832E-3,2.7746926E-3,9.661018E-3,1.7456556E-2,-3.0098788E-3,1.6748548E-2,9.197117E-3,8.983363E-3,-6.359454E-3,9.30125E-3,-3.6474857E-3,-1.0600764E-2,3.1118721E-3,8.168043E-3,2.1893203E-3,-8.56672E-3,-1.4729336E-3,5.745888E-6,4.510128E-3,1.4197836E-2,2.266871E-2,2.0326683E-2,2.938029E-2],"categories":[],"categories_nodes":[],"categories_segments":[],"categories_sizes":[],"default_left":[0,0,0,0,0,0,0,0,0,0,0,0,0,0,0,0,0,0,0,0,0,0,0,0,0,0,0,0,0,0,0,0,0,0,0,0,0,0,0,0,0,0,0,0,0,0,0,0,0,0,0,0,0,0,0,0,0,0,0,0,0,0,0,0,0,0,0,0,0,0,0,0,0,0,0,0,0,0,0,0,0,0,0,0,0,0,0,0,0,0,0,0,0,0,0,0,0,0,0,0,0,0,0,0,0,0,0,0,0,0,0,0,0,0,0,0,0,0,0,0,0],"id":7,"left_children":[1,3,5,7,9,11,13,15,17,19,21,23,25,27,29,31,33,35,37,39,41,43,45,47,49,51,53,55,57,59,61,63,65,67,69,71,73,75,77,79,81,83,85,87,89,91,93,95,97,99,101,103,105,107,109,-1,111,113,115,117,119,-1,-1,-1,-1,-1,-1,-1,-1,-1,-1,-1,-1,-1,-1,-1,-1,-1,-1,-1,-1,-1,-1,-1,-1,-1,-1,-1,-1,-1,-1,-1,-1,-1,-1,-1,-1,-1,-1,-1,-1,-1,-1,-1,-1,-1,-1,-1,-1,-1,-1,-1,-1,-1,-1,-1,-1,-1,-1,-1,-1],"loss_changes":[1.0938865E1,1.6094987E0,2.490633E0,3.1309128E-1,4.039429E-1,7.697902E-1,4.703145E-1,2.1610832E-1,1.446318E-1,2.4348563E-1,4.8415184E-1,4.9917525E-1,4.6660447E-1,1.1757349E-1,1.9572258E-1,1.8994069E-1,1.9206297E-1,1.4168319E-1,4.0493846E-2,1.1131376E-1,1.6362602E-1,1.7521521E-1,3.8554174E-1,2.981468E-1,1.9059479E-1,2.516737E-1,1.7706066E-1,1.8712968E-2,3.403353E-2,7.392216E-2,1.1744142E-2,2.7116815E-2,8.056426E-2,1.158694E-1,1.370827E-1,8.7504655E-2,1.2113317E-1,2.4719477E-2,2.5783464E-2,1.023677E-1,1.03084475E-1,1.0477993E-1,1.5309873E-1,9.950122E-2,1.304195E-1,2.3983812E-1,2.2798118E-1,2.2109139E-1,1.6859443E-1,1.493699E-1,1.9164926E-1,3.9914036E-1,1.330432E-1,1.0346189E-1,3.934508E-2,0E0,2.721958E-4,2.0936131E-3,1.6864697E-3,5.2024484E-2,3.6842585E-2,0E0,0E0,0E0,0E0,0E0,0E0,0E0,0E0,0E0,0E0,0E0,0E0,0E0,0E0,0E0,0E0,0E0,0E0,0E0,0E0,0E0,0E0,0E0,0E0,0E0,0E0,0E0,0E0,0E0,0E0,0E0,0E0,0E0,0E0,0E0,0E0,0E0,0E0,0E0,0E0,0E0,0E0,0E0,0E0,0E0,0E0,0E0,0E0,0E0,0E0,0E0,0E0,0E0,0E0,0E0,0E0,0E0,0E0,0E0,0E0],"parents":[2147483647,0,0,1,1,2,2,3,3,4,4,5,5,6,6,7,7,8,8,9,9,10,10,11,11,12,12,13,13,14,14,15,15,16,16,17,17,18,18,19,19,20,20,21,21,22,22,23,23,24,24,25,25,26,26,27,27,28,28,29,29,30,30,31,31,32,32,33,33,34,34,35,35,36,36,37,37,38,38,39,39,40,40,41,41,42,42,43,43,44,44,45,45,46,46,47,47,48,48,49,49,50,50,51,51,52,52,53,53,54,54,56,56,57,57,58,58,59,59,60,60],"right_children":[2,4,6,8,10,12,14,16,18,20,22,24,26,28,30,32,34,36,38,40,42,44,46,48,50,52,54,56,58,60,62,64,66,68,70,72,74,76,78,80,82,84,86,88,90,92,94,96,98,100,102,104,106,108,110,-1,112,114,116,118,120,-1,-1,-1,-1,-1,-1,-1,-1,-1,-1,-1,-1,-1,-1,-1,-1,-1,-1,-1,-1,-1,-1,-1,-1,-1,-1,-1,-1,-1,-1,-1,-1,-1,-1,-1,-1,-1,-1,-1,-1,-1,-1,-1,-1,-1,-1,-1,-1,-1,-1,-1,-1,-1,-1,-1,-1,-1,-1,-1,-1],"split_conditions":[5.2043405E0,2.7862E0,1E0,4.3732716E1,1E0,7.792778E0,7.4979906E0,2.0518641E0,1.4489884E1,3.6319585E0,7.8866367E0,1E0,1E0,5.308619E-4,1E0,3.4433372E0,3.5510525E-1,1.4121921E0,3.6972065E-2,1.5700732E0,-8.069252E0,4.263748E-1,1E0,2.2E0,8.043229E-2,1E0,4.541647E-1,5.197021E-1,5.485759E-1,1.0987775E1,1.8143456E2,2.5918527E-2,9.573734E-1,-3.7718898E-1,-1.8484885E-1,6.116095E-1,8.7022E-2,-1.143519E-1,1.1418085E-1,4.1405E-2,3.0587868E-5,1.7876662E2,4.626927E-2,1.7E0,3.0610688E0,1.309E2,4.151864E0,1.1130405E-3,4.679321E-1,6.0056303E-5,2.2753043E0,4.3776933E-2,1.1739369E1,1.5127502E1,5.197021E-1,1.8117193E-2,4.119232E1,1.5934118E0,5.2462907E0,1.5002924E0,5.9122473E-2,3.9610386E-2,1.5308857E-2,3.8151324E-3,-4.8658494E-3,-1.6789364E-2,-1.1190393E-2,6.9192247E-3,-8.98287E-3,6.0836026E-3,-5.0518564E-3,-1.0391149E-2,3.094253E-3,-4.8170006E-3,6.7877385E-4,-6.11478E-3,-1.7786285E-2,-1.0861862E-2,-5.0448575E-3,1.4700117E-2,-8.9009E-3,5.232861E-3,-5.3795595E-3,9.6567E-3,-1.2307111E-3,2.2218875E-3,-4.3223957E-3,1.3157819E-2,4.7599482E-3,-7.47313E-3,3.4227388E-3,-9.6362823E-4,-6.6201547E-3,-8.242537E-4,6.965791E-3,3.1395503E-3,1.5096973E-2,5.641923E-3,-3.4139832E-3,2.7746926E-3,9.661018E-3,1.7456556E-2,-3.0098788E-3,1.6748548E-2,9.197117E-3,8.983363E-3,-6.359454E-3,9.30125E-3,-3.6474857E-3,-1.0600764E-2,3.1118721E-3,8.168043E-3,2.1893203E-3,-8.56672E-3,-1.4729336E-3,5.745888E-6,4.510128E-3,1.4197836E-2,2.266871E-2,2.0326683E-2,2.938029E-2],"split_indices":[0,0,101,1,66,0,0,0,2,0,2,62,103,13,66,2,7,0,44,3,70,9,62,52,26,59,32,6,6,0,37,41,0,43,45,9,4,42,26,4,36,37,26,52,0,50,0,13,24,36,3,33,0,19,6,0,1,3,0,3,26,0,0,0,0,0,0,0,0,0,0,0,0,0,0,0,0,0,0,0,0,0,0,0,0,0,0,0,0,0,0,0,0,0,0,0,0,0,0,0,0,0,0,0,0,0,0,0,0,0,0,0,0,0,0,0,0,0,0,0,0],"split_type":[0,0,0,0,0,0,0,0,0,0,0,0,0,0,0,0,0,0,0,0,0,0,0,0,0,0,0,0,0,0,0,0,0,0,0,0,0,0,0,0,0,0,0,0,0,0,0,0,0,0,0,0,0,0,0,0,0,0,0,0,0,0,0,0,0,0,0,0,0,0,0,0,0,0,0,0,0,0,0,0,0,0,0,0,0,0,0,0,0,0,0,0,0,0,0,0,0,0,0,0,0,0,0,0,0,0,0,0,0,0,0,0,0,0,0,0,0,0,0,0,0],"sum_hessian":[2.88E3,1.855E3,1.025E3,7.76E2,1.079E3,9E2,1.25E2,5.18E2,2.58E2,4.77E2,6.02E2,5.07E2,3.93E2,2E1,1.05E2,2.7E2,2.48E2,2.09E2,4.9E1,1.81E2,2.96E2,1.42E2,4.6E2,3.42E2,1.65E2,3.53E2,4E1,1.1E1,9E0,9.3E1,1.2E1,1.3E1,2.57E2,1.98E2,5E1,4.5E1,1.64E2,1.3E1,3.6E1,1.31E2,5E1,3.4E1,2.62E2,5.9E1,8.3E1,3.01E2,1.59E2,2.02E2,1.4E2,1.28E2,3.7E1,3.32E2,2.1E1,2.5E1,1.5E1,5E0,6E0,4E0,5E0,4.6E1,4.7E1,1E1,2E0,8E0,5E0,3.4E1,2.23E2,4E0,1.94E2,1.5E1,3.5E1,4E1,5E0,9.6E1,6.8E1,4E0,9E0,1.6E1,2E1,1E0,1.3E2,1.1E1,3.9E1,1.6E1,1.8E1,4.2E1,2.2E2,2.8E1,3.1E1,1.2E1,7.1E1,1.41E2,1.6E2,1E2,5.9E1,1.86E2,1.6E1,2.4E1,1.16E2,6E1,6.8E1,3.2E1,5E0,1.05E2,2.27E2,9E0,1.2E1,1.6E1,9E0,1.3E1,2E0,5E0,1E0,3E0,1E0,1E0,4E0,2.6E1,2E1,2.3E1,2.4E1],"tree_param":{"num_deleted":"0","num_feature":"111","num_nodes":"121","size_leaf_vector":"1"}},{"base_weights":[5.05658E-4,-3.5742477E-2,8.6155556E-2,-6.0917985E-2,-2.0467935E-3,6.654479E-2,2.0375694E-1,-9.452929E-2,-4.8856735E-2,-1.6476965E-2,3.1155871E-2,4.7006983E-2,9.677372E-2,1.6936132E-1,2.7003393E-1,-5.731319E-2,-1.10334784E-1,-5.9193045E-2,-1.6624914E-2,-1.05443425E-1,-1.2138664E-2,3.878941E-2,-6.35311E-2,1.7267426E-2,7.306573E-2,9.207723E-2,3.441795E-2,2.1321112E-1,1.2945582E-1,3.5241887E-2,2.1731456E-1,-7.181251E-2,3.7437446E-2,-1.1403967E-1,-1.3686296E-2,-4.651596E-2,-8.325271E-2,1.0174529E-2,-3.8198385E-2,-1.2281966E-1,1.8185748E-2,3.015112E-3,-3.9109398E-2,1.7873664E-1,3.2669146E-2,-1.178228E-1,8.278667E-2,-1.0861015E-3,7.064872E-2,1.3562492E-1,4.0135857E-2,8.411983E-2,2.2010624E-1,6.969381E-3,2.3284423E-1,7.475886E-2,1.6517742E-1,2.2419593E-1,8.7531665E-3,-9.158904E-3,-3.3192919E-3,5.684133E-3,-4.618927E-3,-1.1629603E-2,-5.26318E-5,-4.6011833E-3,3.822358E-3,2.501862E-3,-5.3384337E-3,-9.2548905E-3,-9.6141157E-4,-1.7222755E-3,5.4793004E-3,2.7492016E-3,-4.9756253E-3,-6.7060865E-3,-1.5696254E-2,2.4063026E-3,-3.1885826E-3,-2.8319468E-3,-1.169589E-2,1.5488267E-5,1.9856187E-2,8.146595E-3,1.5094026E-3,-2.0837865E-3,-1.3114065E-2,1.5488419E-2,8.0168695E-4,-2.2751358E-3,5.7384963E-3,1.4114018E-2,3.9917645E-3,2.9726077E-2,1.2126856E-2,5.4578693E-3,-6.8397443E-3,9.037342E-3,-5.7342392E-3,3.5857446E-3,2.5986692E-2,2.427922E-2,5.243369E-3,8.784808E-3,4.3993445E-5,8.676529E-4,1.7086297E-2,2.3149906E-2,9.347335E-3],"categories":[],"categories_nodes":[],"categories_segments":[],"categories_sizes":[],"default_left":[0,0,0,0,0,0,0,0,0,0,0,0,0,0,0,0,0,0,0,0,0,0,0,0,0,0,0,0,0,0,0,0,0,0,0,0,0,0,0,0,0,0,0,0,0,0,0,0,0,0,0,0,0,0,0,0,0,0,0,0,0,0,0,0,0,0,0,0,0,0,0,0,0,0,0,0,0,0,0,0,0,0,0,0,0,0,0,0,0,0,0,0,0,0,0,0,0,0,0,0,0,0,0,0,0,0,0,0,0],"id":8,"left_children":[1,3,5,7,9,11,13,15,17,19,21,23,25,27,29,31,33,35,37,39,41,43,45,47,49,51,-1,53,55,-1,57,59,61,63,65,67,69,71,73,75,-1,77,79,81,83,85,87,89,91,93,95,97,99,-1,101,103,105,107,-1,-1,-1,-1,-1,-1,-1,-1,-1,-1,-1,-1,-1,-1,-1,-1,-1,-1,-1,-1,-1,-1,-1,-1,-1,-1,-1,-1,-1,-1,-1,-1,-1,-1,-1,-1,-1,-1,-1,-1,-1,-1,-1,-1,-1,-1,-1,-1,-1,-1,-1],"loss_changes":[8.947574E0,1.717695E0,1.9628997E0,4.6523333E-1,4.1591048E-1,4.3013787E-1,2.323823E-1,1.730833E-1,2.8386617E-1,2.3222785E-1,1.925599E-1,3.4670228E-1,3.0294704E-1,1.17636204E-1,9.714532E-2,1.3045374E-1,7.470846E-2,1.9346642E-1,1.21223465E-1,1.6211748E-1,2.363514E-1,2.0315021E-1,1.6863096E-1,2.0680085E-1,4.8691237E-1,2.7081776E-1,0E0,9.084439E-2,7.752919E-2,0E0,4.488945E-3,5.882457E-2,2.3720339E-2,5.2444696E-2,1.6860867E-2,2.1064055E-1,1.510824E-1,1.1585164E-1,8.943987E-2,4.0875614E-2,0E0,2.733009E-1,1.7140585E-1,3.537348E-2,2.0030862E-1,1.664178E-2,3.1102624E-2,2.0145848E-1,1.1134505E-1,1.5423286E-1,2.5140253E-1,2.4315226E-1,1.0789561E-1,0E0,4.64952E-2,1.9416898E-2,2.2542E-2,2.22826E-3,0E0,0E0,0E0,0E0,0E0,0E0,0E0,0E0,0E0,0E0,0E0,0E0,0E0,0E0,0E0,0E0,0E0,0E0,0E0,0E0,0E0,0E0,0E0,0E0,0E0,0E0,0E0,0E0,0E0,0E0,0E0,0E0,0E0,0E0,0E0,0E0,0E0,0E0,0E0,0E0,0E0,0E0,0E0,0E0,0E0,0E0,0E0,0E0,0E0,0E0,0E0],"parents":[2147483647,0,0,1,1,2,2,3,3,4,4,5,5,6,6,7,7,8,8,9,9,10,10,11,11,12,12,13,13,14,14,15,15,16,16,17,17,18,18,19,19,20,20,21,21,22,22,23,23,24,24,25,25,27,27,28,28,30,30,31,31,32,32,33,33,34,34,35,35,36,36,37,37,38,38,39,39,41,41,42,42,43,43,44,44,45,45,46,46,47,47,48,48,49,49,50,50,51,51,52,52,54,54,55,55,56,56,57,57],"right_children":[2,4,6,8,10,12,14,16,18,20,22,24,26,28,30,32,34,36,38,40,42,44,46,48,50,52,-1,54,56,-1,58,60,62,64,66,68,70,72,74,76,-1,78,80,82,84,86,88,90,92,94,96,98,100,-1,102,104,106,108,-1,-1,-1,-1,-1,-1,-1,-1,-1,-1,-1,-1,-1,-1,-1,-1,-1,-1,-1,-1,-1,-1,-1,-1,-1,-1,-1,-1,-1,-1,-1,-1,-1,-1,-1,-1,-1,-1,-1,-1,-1,-1,-1,-1,-1,-1,-1,-1,-1,-1,-1],"split_conditions":[5.840021E0,3.5363197E0,1E0,1.787599E0,1.8371321E2,8.930104E0,1.1950754E1,6.3502226E0,4.5822403E1,-4.368736E-1,1E0,1E0,1E0,-6.1986484E-2,4.9925083E-3,1.0709724E-2,1.1219467E0,1.1E2,2E0,1.13919E-1,1.533041E1,5E1,8.4542594E-4,7.092709E-2,7.919E-2,1.9110176E-3,3.441795E-2,-3.9442456E-1,8.774889E0,3.5241887E-2,1.7591871E-1,1.1E1,-4.9116075E-1,1.66518E-1,7.170053E1,4E-1,4.535E2,2.8952606E0,-2.0315653E-1,8.191606E-4,1.8185748E-2,5E0,1.0841772E-3,6.145033E-2,-3.4276995E-1,1.4E1,3.4812935E1,5.189556E0,2.3899136E-5,-9.405715E0,3.688228E1,3.0518806E-1,3.9E1,6.969381E-3,1.8387077E2,6.993416E-4,1.7322148E2,1.8398196E2,8.7531665E-3,-9.158904E-3,-3.3192919E-3,5.684133E-3,-4.618927E-3,-1.1629603E-2,-5.26318E-5,-4.6011833E-3,3.822358E-3,2.501862E-3,-5.3384337E-3,-9.2548905E-3,-9.6141157E-4,-1.7222755E-3,5.4793004E-3,2.7492016E-3,-4.9756253E-3,-6.7060865E-3,-1.5696254E-2,2.4063026E-3,-3.1885826E-3,-2.8319468E-3,-1.169589E-2,1.5488267E-5,1.9856187E-2,8.146595E-3,1.5094026E-3,-2.0837865E-3,-1.3114065E-2,1.5488419E-2,8.0168695E-4,-2.2751358E-3,5.7384963E-3,1.4114018E-2,3.9917645E-3,2.9726077E-2,1.2126856E-2,5.4578693E-3,-6.8397443E-3,9.037342E-3,-5.7342392E-3,3.5857446E-3,2.5986692E-2,2.427922E-2,5.243369E-3,8.784808E-3,4.3993445E-5,8.676529E-4,1.7086297E-2,2.3149906E-2,9.347335E-3],"split_indices":[0,0,101,0,30,0,0,2,1,40,56,66,104,47,45,28,24,51,52,4,2,50,17,47,4,12,0,47,0,0,49,20,70,5,1,55,53,0,44,12,0,23,15,8,40,20,1,70,36,70,2,11,20,0,37,16,30,37,0,0,0,0,0,0,0,0,0,0,0,0,0,0,0,0,0,0,0,0,0,0,0,0,0,0,0,0,0,0,0,0,0,0,0,0,0,0,0,0,0,0,0,0,0,0,0,0,0,0,0],"split_type":[0,0,0,0,0,0,0,0,0,0,0,0,0,0,0,0,0,0,0,0,0,0,0,0,0,0,0,0,0,0,0,0,0,0,0,0,0,0,0,0,0,0,0,0,0,0,0,0,0,0,0,0,0,0,0,0,0,0,0,0,0,0,0,0,0,0,0,0,0,0,0,0,0,0,0,0,0,0,0,0,0,0,0,0,0,0,0,0,0,0,0,0,0,0,0,0,0,0,0,0,0,0,0,0,0,0,0,0,0],"sum_hessian":[2.88E3,2.024E3,8.56E2,1.158E3,8.66E2,7.35E2,1.21E2,3.04E2,8.54E2,6.04E2,2.62E2,4.48E2,2.87E2,8.2E1,3.9E1,9.2E1,2.12E2,6.46E2,2.08E2,2.7E1,5.77E2,2.43E2,1.9E1,2.1E2,2.38E2,2.83E2,4E0,3.7E1,4.5E1,1.3E1,2.6E1,8E1,1.2E1,2.04E2,8E0,4.25E2,2.21E2,9.3E1,1.15E2,2.6E1,1E0,3.7E2,2.07E2,9E0,2.34E2,1.4E1,5E0,1.57E2,5.3E1,8.1E1,1.57E2,2.68E2,1.5E1,5E0,3.2E1,1.9E1,2.6E1,2.4E1,2E0,5.2E1,2.8E1,1E1,2E0,2E2,4E0,5E0,3E0,3.7E1,3.88E2,1.96E2,2.5E1,5.8E1,3.5E1,1.7E1,9.8E1,1.1E1,1.5E1,2.31E2,1.39E2,1.83E2,2.4E1,1E0,8E0,6.1E1,1.73E2,2E0,1.2E1,2E0,3E0,1.15E2,4.2E1,1.5E1,3.8E1,5E0,7.6E1,1.39E2,1.8E1,2.57E2,1.1E1,3E0,1.2E1,3E1,2E0,1.6E1,3E0,1E0,2.5E1,2.2E1,2E0],"tree_param":{"num_deleted":"0","num_feature":"111","num_nodes":"109","size_leaf_vector":"1"}},{"base_weights":[5.4006086E-4,-2.9529938E-2,8.510128E-2,-5.227867E-2,4.348328E-3,6.657093E-2,1.8472661E-1,-7.4692346E-2,-3.5641957E-2,-8.065528E-4,9.298556E-2,5.9209444E-2,1.3178413E-1,1.7360269E-1,4.0140662E-2,-9.9631496E-2,-6.269749E-2,1.0586517E-2,-4.5179266E-2,8.227859E-3,-3.6118E-2,1.2920758E-1,7.098083E-3,8.009916E-2,3.985805E-2,1.8127114E-1,9.077277E-2,6.0650032E-2,1.8629663E-1,-1.0885622E-1,-4.0297866E-2,-4.590768E-2,-8.353187E-2,4.026839E-2,-3.8485453E-2,-3.9272472E-2,-1.1472247E-1,2.6509259E-2,-1.8597659E-2,-2.5935588E-2,-1.1299678E-1,1.5397792E-1,-4.0301837E-2,-7.1316004E-2,6.7298144E-2,1.5021697E-1,6.50522E-2,-2.9721364E-2,5.3176362E-2,2.2685388E-1,3.895755E-2,2.7568208E-3,1.1495797E-1,6.8880143E-3,8.3778925E-2,7.392229E-2,1.9255E-1,-1.1121786E-2,5.1477033E-4,3.672484E-3,-6.6553713E-3,-1.6873464E-3,-6.4208186E-3,6.0541363E-4,-9.133636E-3,6.6104904E-3,-6.5568043E-4,-6.7032636E-3,6.3630776E-3,9.375794E-3,-4.185698E-3,-1.2539837E-2,3.1393077E-3,6.771373E-3,1.0140432E-3,-3.6163633E-3,2.3303658E-3,-1.4606471E-3,-1.014893E-2,-1.4331469E-2,5.5630804E-5,-7.7027814E-3,1.6497912E-2,3.7556977E-3,-6.915578E-3,-1.1923562E-2,-5.567387E-4,2.4993971E-3,1.1392986E-2,1.6697636E-2,-7.5880364E-3,4.4913287E-3,1.13075925E-2,7.0720207E-4,-1.0604973E-2,-5.6750597E-3,6.0342983E-3,2.9739172E-3,2.460376E-2,-9.594619E-5,7.911443E-3,3.6744406E-3,-3.1782128E-3,1.6018713E-2,7.8418655E-3,-2.414869E-3,2.0684362E-3,9.280215E-3,3.4798444E-3,1.4439255E-3,8.142959E-3,1.9934073E-2,9.29344E-3],"categories":[],"categories_nodes":[],"categories_segments":[],"categories_sizes":[],"default_left":[0,0,0,0,0,0,0,0,0,0,0,0,0,0,0,0,0,0,0,0,0,0,0,0,0,0,0,0,0,0,0,0,0,0,0,0,0,0,0,0,0,0,0,0,0,0,0,0,0,0,0,0,0,0,0,0,0,0,0,0,0,0,0,0,0,0,0,0,0,0,0,0,0,0,0,0,0,0,0,0,0,0,0,0,0,0,0,0,0,0,0,0,0,0,0,0,0,0,0,0,0,0,0,0,0,0,0,0,0,0,0,0,0],"id":9,"left_children":[1,3,5,7,9,11,13,15,17,19,21,23,25,27,-1,29,31,33,35,37,39,41,43,45,47,49,51,53,55,57,59,61,63,65,67,69,71,73,75,77,79,81,83,85,87,89,91,93,95,97,99,101,103,105,107,109,111,-1,-1,-1,-1,-1,-1,-1,-1,-1,-1,-1,-1,-1,-1,-1,-1,-1,-1,-1,-1,-1,-1,-1,-1,-1,-1,-1,-1,-1,-1,-1,-1,-1,-1,-1,-1,-1,-1,-1,-1,-1,-1,-1,-1,-1,-1,-1,-1,-1,-1,-1,-1,-1,-1,-1,-1],"loss_changes":[7.3281927E0,1.6387092E0,1.3833475E0,4.716537E-1,3.907368E-1,2.9895926E-1,2.147336E-1,1.5558863E-1,3.2321358E-1,2.583829E-1,1.4530072E-1,2.2965264E-1,1.1343539E-1,1.5215611E-1,0E0,9.084988E-2,1.24893665E-1,1.8507479E-1,2.4483633E-1,3.168062E-1,1.2623324E-1,1.4476615E-1,7.560742E-2,2.8142452E-1,2.805113E-1,1.7279965E-1,7.844436E-2,1.5587859E-2,5.744338E-2,4.095769E-2,5.3001583E-2,1.0837281E-1,1.1451793E-1,9.600763E-2,1.4419162E-1,1.9680613E-1,7.725263E-2,2.5830933E-1,1.9368455E-1,1.2434325E-1,6.549089E-2,8.640683E-2,1.3829951E-2,2.1390706E-2,1.4906883E-2,1.9455433E-1,2.1639776E-1,1.3836055E-1,2.0273906E-1,7.2092175E-2,1.2899448E-2,1.1732873E-2,3.5364985E-2,2.6404657E-3,7.482767E-4,1.950115E-3,4.6414852E-2,0E0,0E0,0E0,0E0,0E0,0E0,0E0,0E0,0E0,0E0,0E0,0E0,0E0,0E0,0E0,0E0,0E0,0E0,0E0,0E0,0E0,0E0,0E0,0E0,0E0,0E0,0E0,0E0,0E0,0E0,0E0,0E0,0E0,0E0,0E0,0E0,0E0,0E0,0E0,0E0,0E0,0E0,0E0,0E0,0E0,0E0,0E0,0E0,0E0,0E0,0E0,0E0,0E0,0E0,0E0,0E0],"parents":[2147483647,0,0,1,1,2,2,3,3,4,4,5,5,6,6,7,7,8,8,9,9,10,10,11,11,12,12,13,13,15,15,16,16,17,17,18,18,19,19,20,20,21,21,22,22,23,23,24,24,25,25,26,26,27,27,28,28,29,29,30,30,31,31,32,32,33,33,34,34,35,35,36,36,37,37,38,38,39,39,40,40,41,41,42,42,43,43,44,44,45,45,46,46,47,47,48,48,49,49,50,50,51,51,52,52,53,53,54,54,55,55,56,56],"right_children":[2,4,6,8,10,12,14,16,18,20,22,24,26,28,-1,30,32,34,36,38,40,42,44,46,48,50,52,54,56,58,60,62,64,66,68,70,72,74,76,78,80,82,84,86,88,90,92,94,96,98,100,102,104,106,108,110,112,-1,-1,-1,-1,-1,-1,-1,-1,-1,-1,-1,-1,-1,-1,-1,-1,-1,-1,-1,-1,-1,-1,-1,-1,-1,-1,-1,-1,-1,-1,-1,-1,-1,-1,-1,-1,-1,-1,-1,-1,-1,-1,-1,-1,-1,-1,-1,-1,-1,-1,-1,-1,-1,-1,-1,-1],"split_conditions":[6.2635026E0,3.7546551E0,1E0,2.3100867E0,2.210403E0,1.4746898E1,3.075851E-1,1.5145578E0,2.0075498E-5,2.2E0,6.853761E-1,1.373E2,1.0331E-1,7.4979906E0,4.0140662E-2,1.5163986E-4,1.2214993E1,8.2449034E-2,2.6028656E1,8.6482E-2,1.10709095E1,2.2706733E0,-1.0534134E-1,3.8675383E-2,1.15704285E2,1E0,6.685846E-4,1.465989E-1,5.7419834E1,1E0,-2.0341085E-2,9E-1,5.12E1,4.261218E0,1.4765327E-1,5.7332743E-2,1.1403023E-3,8.2261715E0,1E0,3.441209E2,4.2956063E-1,3.771781E0,1.48971615E1,1.6272089E1,1E0,2.722966E1,-5.54324E-2,5.4050963E-2,1E0,1.7463016E2,4.8409853E-4,1.4996275E0,3E0,3.0410297E1,6.494404E-1,7.858536E0,2.7058753E-1,-1.1121786E-2,5.1477033E-4,3.672484E-3,-6.6553713E-3,-1.6873464E-3,-6.4208186E-3,6.0541363E-4,-9.133636E-3,6.6104904E-3,-6.5568043E-4,-6.7032636E-3,6.3630776E-3,9.375794E-3,-4.185698E-3,-1.2539837E-2,3.1393077E-3,6.771373E-3,1.0140432E-3,-3.6163633E-3,2.3303658E-3,-1.4606471E-3,-1.014893E-2,-1.4331469E-2,5.5630804E-5,-7.7027814E-3,1.6497912E-2,3.7556977E-3,-6.915578E-3,-1.1923562E-2,-5.567387E-4,2.4993971E-3,1.1392986E-2,1.6697636E-2,-7.5880364E-3,4.4913287E-3,1.13075925E-2,7.0720207E-4,-1.0604973E-2,-5.6750597E-3,6.0342983E-3,2.9739172E-3,2.460376E-2,-9.594619E-5,7.911443E-3,3.6744406E-3,-3.1782128E-3,1.6018713E-2,7.8418655E-3,-2.414869E-3,2.0684362E-3,9.280215E-3,3.4798444E-3,1.4439255E-3,8.142959E-3,1.9934073E-2,9.29344E-3],"split_indices":[0,0,101,0,3,0,8,3,36,55,7,50,4,0,0,36,2,27,2,4,68,3,43,33,110,62,12,11,110,102,41,55,51,69,43,8,17,2,62,110,32,0,2,2,61,2,40,27,22,37,13,3,52,1,6,0,11,0,0,0,0,0,0,0,0,0,0,0,0,0,0,0,0,0,0,0,0,0,0,0,0,0,0,0,0,0,0,0,0,0,0,0,0,0,0,0,0,0,0,0,0,0,0,0,0,0,0,0,0,0,0,0,0],"split_type":[0,0,0,0,0,0,0,0,0,0,0,0,0,0,0,0,0,0,0,0,0,0,0,0,0,0,0,0,0,0,0,0,0,0,0,0,0,0,0,0,0,0,0,0,0,0,0,0,0,0,0,0,0,0,0,0,0,0,0,0,0,0,0,0,0,0,0,0,0,0,0,0,0,0,0,0,0,0,0,0,0,0,0,0,0,0,0,0,0,0,0,0,0,0,0,0,0,0,0,0,0,0,0,0,0,0,0,0,0,0,0,0,0],"sum_hessian":[2.88E3,2.125E3,7.55E2,1.271E3,8.54E2,6.38E2,1.17E2,5.4E2,7.31E2,8.08E2,4.6E1,5.75E2,6.3E1,1.13E2,4E0,1.73E2,3.67E2,1.25E2,6.06E2,6.44E2,1.64E2,3.2E1,1.4E1,2.75E2,3E2,2.7E1,3.6E1,1.2E1,1.01E2,1.49E2,2.4E1,2.05E2,1.62E2,7.8E1,4.7E1,5.6E2,4.6E1,3.83E2,2.61E2,1.46E2,1.8E1,2.8E1,4E0,6E0,8E0,4.7E1,2.28E2,4.8E1,2.52E2,2E1,7E0,8E0,2.8E1,4E0,8E0,6E0,9.5E1,1.46E2,3E0,6E0,1.8E1,8E1,1.25E2,1.3E1,1.49E2,5E1,2.8E1,3.7E1,1E1,1E1,5.5E2,4.3E1,3E0,1.08E2,2.75E2,1.84E2,7.7E1,1.28E2,1.8E1,1.4E1,4E0,1E0,2.7E1,1E0,3E0,3E0,3E0,5E0,3E0,4.4E1,3E0,1.62E2,6.6E1,3.3E1,1.5E1,1.5E1,2.37E2,2E0,1.8E1,4E0,3E0,4E0,4E0,1.1E1,1.7E1,1E0,3E0,6E0,2E0,1E0,5E0,8.8E1,7E0],"tree_param":{"num_deleted":"0","num_feature":"111","num_nodes":"113","size_leaf_vector":"1"}},{"base_weights":[5.295568E-4,-3.3502936E-2,6.209269E-2,-6.692925E-2,-1.9338315E-2,4.8338737E-2,1.5995158E-1,-7.8329824E-2,-4.6150815E-2,-1.2877898E-2,-6.4521864E-2,2.9117418E-2,7.2998874E-2,5.555156E-2,1.7912564E-1,-5.658085E-2,-9.5485955E-2,-4.9196113E-2,5.949813E-2,-2.0857777E-2,3.5573453E-2,-7.1150616E-2,1.2078899E-2,5.114788E-2,-4.5086634E-3,8.2885355E-2,-1.41429575E-2,1.0890175E-1,-1.4023828E-2,3.9389905E-2,1.6904584E-1,-6.9776624E-2,-9.557024E-3,-1.0755513E-1,-6.3955426E-2,3.700108E-2,-5.3123564E-2,6.9117085E-3,5.701691E-4,4.3756557E-3,-3.175205E-2,1.7292496E-2,2.918221E-2,1.0719877E-1,-7.5294144E-2,5.8967263E-2,-2.5843717E-2,-1.695629E-2,1.2367576E-1,9.066987E-2,-1.1490617E-3,3.015626E-2,-8.524525E-2,1.4842284E-1,5.9469137E-2,2.2213174E-2,-7.393263E-3,1.4582546E-1,2.0492738E-1,-6.6151355E-5,-8.150692E-3,6.1284187E-3,-4.317852E-3,-1.092305E-2,6.3498514E-3,5.0940795E-4,-8.248183E-3,5.584623E-3,-1.9304628E-3,-6.274104E-3,-1.7814843E-3,-3.0160793E-3,3.035383E-3,-1.3589645E-2,-2.9062189E-3,1.9160351E-3,1.09998565E-2,1.250934E-2,2.6757435E-3,-8.407047E-3,1.2222872E-3,1.0470018E-2,3.6993946E-3,-6.5556094E-3,5.6165406E-3,-2.8554294E-3,6.203675E-3,1.5440966E-2,-2.2495321E-3,1.1346669E-2,5.487578E-3,1.10001415E-2,-5.161978E-3,7.1036643E-3,-4.2356015E-3,-1.0804818E-2,1.0175578E-3,3.954816E-3,1.6228816E-2,6.4256685E-3,1.5371934E-3,-5.8063865E-4,3.4582277E-3,1.0506354E-2,1.768753E-2,2.2784501E-2,1.3628544E-2],"categories":[],"categories_nodes":[],"categories_segments":[],"categories_sizes":[],"default_left":[0,0,0,0,0,0,0,0,0,0,0,0,0,0,0,0,0,0,0,0,0,0,0,0,0,0,0,0,0,0,0,0,0,0,0,0,0,0,0,0,0,0,0,0,0,0,0,0,0,0,0,0,0,0,0,0,0,0,0,0,0,0,0,0,0,0,0,0,0,0,0,0,0,0,0,0,0,0,0,0,0,0,0,0,0,0,0,0,0,0,0,0,0,0,0,0,0,0,0,0,0,0,0,0,0,0,0],"id":10,"left_children":[1,3,5,7,9,11,13,15,17,19,21,23,25,27,29,31,33,35,37,39,41,43,-1,45,47,49,51,53,55,-1,57,59,61,63,65,67,69,-1,-1,71,73,-1,75,77,79,81,83,85,87,89,91,93,95,97,99,101,-1,103,105,-1,-1,-1,-1,-1,-1,-1,-1,-1,-1,-1,-1,-1,-1,-1,-1,-1,-1,-1,-1,-1,-1,-1,-1,-1,-1,-1,-1,-1,-1,-1,-1,-1,-1,-1,-1,-1,-1,-1,-1,-1,-1,-1,-1,-1,-1,-1,-1],"loss_changes":[6.0381994E0,8.774679E-1,1.3732095E0,1.2714648E-1,3.8010454E-1,4.2494845E-1,2.4227262E-1,1.2705755E-1,6.6630185E-2,4.426669E-1,2.0882016E-1,3.76556E-1,3.406136E-1,7.947629E-2,1.6288972E-1,9.799528E-2,6.808913E-2,6.730291E-2,2.7107093E-3,2.700906E-1,1.3716483E-1,1.2483281E-1,0E0,1.8634623E-1,3.2440665E-1,2.3167944E-1,1.3171148E-1,1.4616981E-2,2.335143E-2,0E0,5.5933952E-2,1.00477815E-1,8.8390514E-2,4.734361E-2,7.333678E-2,1.06278965E-2,6.1704755E-2,0E0,0E0,2.673821E-1,1.8822247E-1,0E0,1.2424147E-1,2.410695E-3,1.2007946E-1,2.764948E-1,9.812851E-2,1.7126134E-1,8.433682E-2,2.5815463E-1,1.7958342E-1,8.0081396E-2,3.5913445E-2,2.6392788E-3,4.900731E-4,2.6268358E-3,0E0,6.494999E-2,2.872622E-2,0E0,0E0,0E0,0E0,0E0,0E0,0E0,0E0,0E0,0E0,0E0,0E0,0E0,0E0,0E0,0E0,0E0,0E0,0E0,0E0,0E0,0E0,0E0,0E0,0E0,0E0,0E0,0E0,0E0,0E0,0E0,0E0,0E0,0E0,0E0,0E0,0E0,0E0,0E0,0E0,0E0,0E0,0E0,0E0,0E0,0E0,0E0,0E0],"parents":[2147483647,0,0,1,1,2,2,3,3,4,4,5,5,6,6,7,7,8,8,9,9,10,10,11,11,12,12,13,13,14,14,15,15,16,16,17,17,18,18,19,19,20,20,21,21,23,23,24,24,25,25,26,26,27,27,28,28,30,30,31,31,32,32,33,33,34,34,35,35,36,36,39,39,40,40,42,42,43,43,44,44,45,45,46,46,47,47,48,48,49,49,50,50,51,51,52,52,53,53,54,54,55,55,57,57,58,58],"right_children":[2,4,6,8,10,12,14,16,18,20,22,24,26,28,30,32,34,36,38,40,42,44,-1,46,48,50,52,54,56,-1,58,60,62,64,66,68,70,-1,-1,72,74,-1,76,78,80,82,84,86,88,90,92,94,96,98,100,102,-1,104,106,-1,-1,-1,-1,-1,-1,-1,-1,-1,-1,-1,-1,-1,-1,-1,-1,-1,-1,-1,-1,-1,-1,-1,-1,-1,-1,-1,-1,-1,-1,-1,-1,-1,-1,-1,-1,-1,-1,-1,-1,-1,-1,-1,-1,-1,-1,-1,-1],"split_conditions":[5.2043405E0,2.3201466E0,1E0,4.3042652E1,2.374003E1,7.792778E0,7.4979906E0,7.92E1,9.718899E1,6.3370353E-1,4.36763E-1,1E0,1E0,5.308619E-4,2.8406413E-2,4.786376E-2,1.1988651E1,-1.1153849E1,1.8009531E0,1.5015022E-3,3.6603248E-1,6.496371E-5,1.2078899E-2,1E0,2.0861924E-1,1.42617E-1,4.541647E-1,5.197021E-1,5.373377E-4,3.9389905E-2,1.1950754E1,-2.0705374E-1,4.2536493E-2,1E0,-1.8296729E-1,1.5959473E0,1.23069E-1,6.9117085E-3,5.701691E-4,8.329254E-5,-4.5899296E-1,1.7292496E-2,1.87013E-1,4.959986E0,1.6649449E-3,4.5592612E-1,4.5548022E-1,2.4310452E1,2.6988176E1,5.0347285E0,1.7732487E2,1.5127502E1,7.28464E-2,1.4922297E0,4.119232E1,5.3233852E0,-7.393263E-3,1.2441351E2,2.1E0,-6.6151355E-5,-8.150692E-3,6.1284187E-3,-4.317852E-3,-1.092305E-2,6.3498514E-3,5.0940795E-4,-8.248183E-3,5.584623E-3,-1.9304628E-3,-6.274104E-3,-1.7814843E-3,-3.0160793E-3,3.035383E-3,-1.3589645E-2,-2.9062189E-3,1.9160351E-3,1.09998565E-2,1.250934E-2,2.6757435E-3,-8.407047E-3,1.2222872E-3,1.0470018E-2,3.6993946E-3,-6.5556094E-3,5.6165406E-3,-2.8554294E-3,6.203675E-3,1.5440966E-2,-2.2495321E-3,1.1346669E-2,5.487578E-3,1.10001415E-2,-5.161978E-3,7.1036643E-3,-4.2356015E-3,-1.0804818E-2,1.0175578E-3,3.954816E-3,1.6228816E-2,6.4256685E-3,1.5371934E-3,-5.8063865E-4,3.4582277E-3,1.0506354E-2,1.768753E-2,2.2784501E-2,1.3628544E-2],"split_indices":[0,0,101,1,2,0,0,51,1,6,40,60,103,13,33,34,67,70,0,41,25,14,0,56,44,5,32,6,12,0,0,45,26,90,40,3,5,0,0,29,40,0,4,0,12,31,9,109,2,69,30,19,26,3,1,0,0,110,52,0,0,0,0,0,0,0,0,0,0,0,0,0,0,0,0,0,0,0,0,0,0,0,0,0,0,0,0,0,0,0,0,0,0,0,0,0,0,0,0,0,0,0,0,0,0,0,0],"split_type":[0,0,0,0,0,0,0,0,0,0,0,0,0,0,0,0,0,0,0,0,0,0,0,0,0,0,0,0,0,0,0,0,0,0,0,0,0,0,0,0,0,0,0,0,0,0,0,0,0,0,0,0,0,0,0,0,0,0,0,0,0,0,0,0,0,0,0,0,0,0,0,0,0,0,0,0,0,0,0,0,0,0,0,0,0,0,0,0,0,0,0,0,0,0,0,0,0,0,0,0,0,0,0,0,0,0,0],"sum_hessian":[2.88E3,1.855E3,1.025E3,5.51E2,1.304E3,9E2,1.25E2,3.54E2,1.97E2,1.142E3,1.62E2,5.07E2,3.93E2,2E1,1.05E2,1.58E2,1.96E2,1.92E2,5E0,9.81E2,1.61E2,1.57E2,5E0,3.06E2,2.01E2,3.53E2,4E1,1.1E1,9E0,3E0,1.02E2,1.23E2,3.5E1,1.4E2,5.6E1,8E0,1.84E2,4E0,1E0,2.96E2,6.85E2,6E0,1.55E2,3E0,1.54E2,2.78E2,2.8E1,1.84E2,1.7E1,3.23E2,3E1,2.5E1,1.5E1,5E0,6E0,6E0,3E0,6.5E1,3.7E1,1.8E1,1.05E2,1.1E1,2.4E1,1.39E2,1E0,1.2E1,4.4E1,6E0,2E0,1.44E2,4E1,1.27E2,1.69E2,1.6E1,6.69E2,1.39E2,1.6E1,2E0,1E0,1.4E2,1.4E1,8.9E1,1.89E2,1.9E1,9E0,1.61E2,2.3E1,1.4E1,3E0,1.96E2,1.27E2,9E0,2.1E1,1.6E1,9E0,1.2E1,3E0,1E0,4E0,5E0,1E0,2E0,4E0,3E1,3.5E1,2.6E1,1.1E1],"tree_param":{"num_deleted":"0","num_feature":"111","num_nodes":"107","size_leaf_vector":"1"}},{"base_weights":[5.4301263E-4,-3.0142846E-2,5.6052186E-2,-5.3569015E-2,-1.3261109E-2,4.3555386E-2,1.4496934E-1,-4.4596978E-2,-7.993716E-2,-3.1009832E-2,8.30353E-4,2.0216051E-2,6.2486723E-2,6.0973916E-2,1.651566E-1,-2.1375287E-2,-5.606333E-2,4.7749504E-2,-8.778744E-2,-1.3124166E-1,-2.680241E-2,4.1466396E-2,-1.1776555E-2,1.0483561E-2,9.4125584E-2,1.2090582E-1,5.3727947E-2,1.15322806E-1,-2.2459603E-3,1.541608E-1,3.454437E-2,-2.6948579E-2,5.2206222E-2,-3.932609E-3,-6.153181E-2,1.0384922E-1,-2.5658408E-2,-1.1744692E-2,-9.29942E-2,-9.529253E-3,-1.4500023E-1,2.1783905E-2,-3.4005344E-2,-9.020245E-2,4.8906725E-2,-6.1551314E-3,-1.09567985E-1,4.551145E-3,1.295621E-1,2.7502013E-2,1.685841E-1,2.1225649E-1,9.345846E-2,6.4807504E-2,-7.928841E-3,2.2873553E-2,7.735939E-2,-5.7594985E-2,2.875305E-2,1.4119636E-1,2.1096854E-1,2.251608E-3,-3.6148098E-3,-1.2342039E-3,8.943771E-3,3.6331394E-3,-6.156632E-3,-7.6975026E-3,-4.7013136E-3,1.2868727E-2,2.7836065E-3,1.0697086E-3,-4.651043E-3,3.6066005E-3,-3.7001222E-3,-1.0619231E-2,-6.352329E-3,6.964028E-4,-2.1257908E-3,-1.4880592E-2,-4.2054625E-3,4.207626E-3,-1.1537594E-2,-6.1997604E-3,-2.2394469E-3,-4.1998425E-4,-1.1817002E-2,-3.919038E-3,5.7748305E-3,-5.102823E-5,-1.1261432E-2,1.8270307E-3,-1.4244107E-2,-9.3511894E-4,5.7007866E-3,5.216488E-3,1.9256352E-2,-2.7663724E-3,1.3477772E-2,2.145446E-2,3.9448044E-3,4.7285897E-3,2.358111E-2,-9.804014E-3,1.0327554E-2,8.434847E-3,3.347138E-3,6.443024E-4,-1.3203668E-2,8.995736E-3,2.9674142E-3,-7.835383E-3,-1.7637819E-3,1.0793287E-3,4.0962202E-3,1.5170827E-2,5.9555112E-3,7.765905E-3,2.2446567E-2],"categories":[],"categories_nodes":[],"categories_segments":[],"categories_sizes":[],"default_left":[0,0,0,0,0,0,0,0,0,0,0,0,0,0,0,0,0,0,0,0,0,0,0,0,0,0,0,0,0,0,0,0,0,0,0,0,0,0,0,0,0,0,0,0,0,0,0,0,0,0,0,0,0,0,0,0,0,0,0,0,0,0,0,0,0,0,0,0,0,0,0,0,0,0,0,0,0,0,0,0,0,0,0,0,0,0,0,0,0,0,0,0,0,0,0,0,0,0,0,0,0,0,0,0,0,0,0,0,0,0,0,0,0,0,0,0,0,0,0],"id":11,"left_children":[1,3,5,7,9,11,13,15,17,19,21,23,25,27,29,31,33,35,37,39,41,43,45,47,49,51,53,55,57,59,-1,61,63,65,67,69,71,73,75,77,79,81,83,85,87,89,91,93,95,97,99,101,103,105,107,-1,109,111,113,115,117,-1,-1,-1,-1,-1,-1,-1,-1,-1,-1,-1,-1,-1,-1,-1,-1,-1,-1,-1,-1,-1,-1,-1,-1,-1,-1,-1,-1,-1,-1,-1,-1,-1,-1,-1,-1,-1,-1,-1,-1,-1,-1,-1,-1,-1,-1,-1,-1,-1,-1,-1,-1,-1,-1,-1,-1,-1,-1],"loss_changes":[4.909031E0,7.332901E-1,1.1337564E0,1.8025446E-1,2.7013966E-1,3.9683902E-1,2.0358014E-1,1.5376961E-1,2.006576E-1,1.980635E-1,3.0940214E-1,2.9033935E-1,2.478087E-1,8.959322E-2,1.469686E-1,8.09646E-2,1.1065245E-1,5.208257E-2,7.215583E-2,3.0435443E-2,1.6172418E-1,1.4450277E-1,2.5274977E-1,2.5301635E-1,2.2851607E-1,1.4063215E-1,2.9699218E-1,4.2582616E-2,2.3960978E-2,4.1650534E-2,0E0,8.317816E-2,3.4749024E-2,9.041822E-2,7.5304866E-2,9.633973E-3,5.046039E-3,1.7032407E-2,6.054449E-2,7.283726E-4,4.0224195E-4,1.7185235E-1,1.2894252E-1,1.8745966E-2,1.0819593E-1,2.6255596E-1,1.0766345E-1,2.5067297E-1,7.2849244E-2,1.5759495E-1,1.2211013E-1,4.3250978E-2,1.06003016E-1,2.2251713E-1,1.2035601E-1,0E0,4.5394376E-3,2.7653296E-3,1.5313439E-3,6.133783E-2,1.135695E-2,0E0,0E0,0E0,0E0,0E0,0E0,0E0,0E0,0E0,0E0,0E0,0E0,0E0,0E0,0E0,0E0,0E0,0E0,0E0,0E0,0E0,0E0,0E0,0E0,0E0,0E0,0E0,0E0,0E0,0E0,0E0,0E0,0E0,0E0,0E0,0E0,0E0,0E0,0E0,0E0,0E0,0E0,0E0,0E0,0E0,0E0,0E0,0E0,0E0,0E0,0E0,0E0,0E0,0E0,0E0,0E0,0E0,0E0],"parents":[2147483647,0,0,1,1,2,2,3,3,4,4,5,5,6,6,7,7,8,8,9,9,10,10,11,11,12,12,13,13,14,14,15,15,16,16,17,17,18,18,19,19,20,20,21,21,22,22,23,23,24,24,25,25,26,26,27,27,28,28,29,29,31,31,32,32,33,33,34,34,35,35,36,36,37,37,38,38,39,39,40,40,41,41,42,42,43,43,44,44,45,45,46,46,47,47,48,48,49,49,50,50,51,51,52,52,53,53,54,54,56,56,57,57,58,58,59,59,60,60],"right_children":[2,4,6,8,10,12,14,16,18,20,22,24,26,28,30,32,34,36,38,40,42,44,46,48,50,52,54,56,58,60,-1,62,64,66,68,70,72,74,76,78,80,82,84,86,88,90,92,94,96,98,100,102,104,106,108,-1,110,112,114,116,118,-1,-1,-1,-1,-1,-1,-1,-1,-1,-1,-1,-1,-1,-1,-1,-1,-1,-1,-1,-1,-1,-1,-1,-1,-1,-1,-1,-1,-1,-1,-1,-1,-1,-1,-1,-1,-1,-1,-1,-1,-1,-1,-1,-1,-1,-1,-1,-1,-1,-1,-1,-1,-1,-1,-1,-1,-1,-1],"split_conditions":[5.2043405E0,2.7862E0,1E0,1.7076197E1,1E0,1E0,7.941433E0,9E-1,3.5453513E-2,3.9352157E0,7.8866367E0,1.2E2,1.485E0,4.905003E-4,3.075851E-1,1.1219467E0,-1.0021398E1,8.7147105E-1,-1.3271386E1,3.5615025E1,4.5978617E-2,6.882886E1,1E0,1E0,2.1136646E0,2.4104057E1,7.585612E-3,-1.2220971E-1,-1.0949003E-1,5.419181E-1,3.454437E-2,1.7643996E2,8.6015826E-1,1.1168735E-2,1.9526254E0,2.1519754E1,9.817E-2,1.8522663E1,5.2746505E-1,2.9476771E0,1.609538E0,2.5065428E-1,2.8779724E1,5.953983E-4,7.198118E-5,1E0,5.071177E-2,4.3042652E1,1.00403725E2,6.593143E-4,3.2841328E-1,7E0,6.057636E-3,1.971E2,2.8897762E-1,2.2873553E-2,5.0940055E-2,3.1904793E-1,2.3059753E1,1.2548567E1,3.9472172E-1,2.251608E-3,-3.6148098E-3,-1.2342039E-3,8.943771E-3,3.6331394E-3,-6.156632E-3,-7.6975026E-3,-4.7013136E-3,1.2868727E-2,2.7836065E-3,1.0697086E-3,-4.651043E-3,3.6066005E-3,-3.7001222E-3,-1.0619231E-2,-6.352329E-3,6.964028E-4,-2.1257908E-3,-1.4880592E-2,-4.2054625E-3,4.207626E-3,-1.1537594E-2,-6.1997604E-3,-2.2394469E-3,-4.1998425E-4,-1.1817002E-2,-3.919038E-3,5.7748305E-3,-5.102823E-5,-1.1261432E-2,1.8270307E-3,-1.4244107E-2,-9.3511894E-4,5.7007866E-3,5.216488E-3,1.9256352E-2,-2.7663724E-3,1.3477772E-2,2.145446E-2,3.9448044E-3,4.7285897E-3,2.358111E-2,-9.804014E-3,1.0327554E-2,8.434847E-3,3.347138E-3,6.443024E-4,-1.3203668E-2,8.995736E-3,2.9674142E-3,-7.835383E-3,-1.7637819E-3,1.0793287E-3,4.0962202E-3,1.5170827E-2,5.9555112E-3,7.765905E-3,2.2446567E-2],"split_indices":[0,0,101,2,66,66,0,55,26,2,2,20,38,13,8,24,70,69,69,1,26,110,56,86,70,1,35,44,40,31,0,30,6,45,0,2,5,1,25,0,3,8,1,13,29,76,26,1,110,12,7,20,28,50,8,0,34,7,2,109,9,0,0,0,0,0,0,0,0,0,0,0,0,0,0,0,0,0,0,0,0,0,0,0,0,0,0,0,0,0,0,0,0,0,0,0,0,0,0,0,0,0,0,0,0,0,0,0,0,0,0,0,0,0,0,0,0,0,0],"split_type":[0,0,0,0,0,0,0,0,0,0,0,0,0,0,0,0,0,0,0,0,0,0,0,0,0,0,0,0,0,0,0,0,0,0,0,0,0,0,0,0,0,0,0,0,0,0,0,0,0,0,0,0,0,0,0,0,0,0,0,0,0,0,0,0,0,0,0,0,0,0,0,0,0,0,0,0,0,0,0,0,0,0,0,0,0,0,0,0,0,0,0,0,0,0,0,0,0,0,0,0,0,0,0,0,0,0,0,0,0,0,0,0,0,0,0,0,0,0,0],"sum_hessian":[2.88E3,1.855E3,1.025E3,7.76E2,1.079E3,9E2,1.25E2,5.81E2,1.95E2,4.77E2,6.02E2,4.04E2,4.96E2,2.5E1,1E2,1.93E2,3.88E2,1.1E1,1.84E2,1.8E1,4.59E2,1.42E2,4.6E2,3.58E2,4.6E1,6.3E1,4.33E2,1.3E1,1.2E1,9.6E1,4E0,1.8E2,1.3E1,3.7E1,3.51E2,6E0,5E0,1.2E1,1.72E2,2E0,1.6E1,5.9E1,4E2,7E0,1.35E2,4.36E2,2.4E1,3.42E2,1.6E1,2.5E1,2.1E1,1.3E1,5E1,3.67E2,6.6E1,2E0,1.1E1,4E0,8E0,8.1E1,1.5E1,2.8E1,1.52E2,5E0,8E0,2.2E1,1.5E1,1.68E2,1.83E2,4E0,2E0,2E0,3E0,4E0,8E0,1.17E2,5.5E1,1E0,1E0,1.5E1,1E0,5.2E1,7E0,1.16E2,2.84E2,2E0,5E0,1.2E1,1.23E2,4.15E2,2.1E1,5E0,1.9E1,2.71E2,7.1E1,8E0,8E0,1.7E1,8E0,1.5E1,6E0,2E0,1.1E1,2E0,4.8E1,2.25E2,1.42E2,6E1,6E0,8E0,3E0,2E0,2E0,4E0,4E0,7.1E1,1E1,2E0,1.3E1],"tree_param":{"num_deleted":"0","num_feature":"111","num_nodes":"119","size_leaf_vector":"1"}},{"base_weights":[5.323526E-4,-2.1846304E-2,6.346422E-2,-3.8986336E-2,4.234868E-3,4.9772806E-2,1.3706885E-1,-6.439788E-2,-3.1029742E-2,-1.0765822E-4,7.95706E-2,4.7258105E-2,2.0322162E-1,3.4136605E-2,1.2877096E-1,-1.6671635E-2,-7.174676E-2,-5.5376356E-3,-3.898433E-2,-7.0182704E-3,3.4865044E-2,1.1449687E-1,-2.4348298E-4,4.2014632E-2,1.1966639E-1,2.6013395E-1,5.2819647E-2,4.5089405E-2,1.418398E-1,-4.6863932E-2,3.5319842E-2,-7.5797915E-2,1.9644061E-2,2.6878746E-2,-3.0356683E-2,-4.106889E-2,5.869053E-2,6.822029E-2,-1.1286153E-2,9.3359694E-2,1.2796255E-2,1.3819498E-1,-4.1111868E-2,-6.907715E-2,5.3320866E-2,7.152271E-2,2.9871684E-2,6.8722465E-3,1.5946844E-1,5.2106725E-3,2.8612072E-2,4.6588332E-4,6.7320312E-3,5.7744864E-2,3.1673373E-3,1.6147326E-1,1.0884364E-1,2.2896193E-5,-6.335789E-3,5.1408284E-3,-2.5797554E-3,-8.325974E-3,-3.8462002E-3,-2.3871497E-3,5.4136817E-3,1.7422608E-3,1.3581055E-2,1.2808953E-2,-3.3753493E-3,-5.3865863E-3,-2.6355765E-3,1.1369026E-3,1.1790832E-2,1.6013617E-2,-5.0594524E-4,-2.6843665E-4,-4.128186E-3,-2.3226247E-3,1.1291312E-2,-1.7421875E-3,4.6677697E-3,-2.0371874E-5,1.4884886E-2,2.8770566E-3,-6.577512E-3,-1.0030384E-2,5.9930485E-4,1.133884E-2,1.996037E-3,1.4856182E-2,5.202378E-3,2.628532E-3,1.7392537E-2,-4.8959106E-3,9.482796E-3,1.0235126E-2,2.4137469E-2,2.217386E-3,6.619878E-3,-1.8362716E-3,1.314053E-3,1.1556122E-2,1.8887123E-2,1.1471116E-2,-1.7595291E-4],"categories":[],"categories_nodes":[],"categories_segments":[],"categories_sizes":[],"default_left":[0,0,0,0,0,0,0,0,0,0,0,0,0,0,0,0,0,0,0,0,0,0,0,0,0,0,0,0,0,0,0,0,0,0,0,0,0,0,0,0,0,0,0,0,0,0,0,0,0,0,0,0,0,0,0,0,0,0,0,0,0,0,0,0,0,0,0,0,0,0,0,0,0,0,0,0,0,0,0,0,0,0,0,0,0,0,0,0,0,0,0,0,0,0,0,0,0,0,0,0,0,0,0,0,0],"id":12,"left_children":[1,3,5,7,9,11,13,15,17,19,21,23,25,-1,27,29,31,33,35,37,39,41,43,45,47,49,51,53,55,57,59,61,63,65,67,69,71,73,75,77,79,81,83,85,87,89,91,93,95,-1,-1,-1,-1,97,99,101,103,-1,-1,-1,-1,-1,-1,-1,-1,-1,-1,-1,-1,-1,-1,-1,-1,-1,-1,-1,-1,-1,-1,-1,-1,-1,-1,-1,-1,-1,-1,-1,-1,-1,-1,-1,-1,-1,-1,-1,-1,-1,-1,-1,-1,-1,-1,-1,-1],"loss_changes":[4.058787E0,9.5055544E-1,7.5503755E-1,2.5741076E-1,2.7612096E-1,2.3697197E-1,1.5608001E-1,1.0577774E-1,1.9830495E-1,1.9334924E-1,1.2825787E-1,2.3416483E-1,7.1857065E-2,0E0,1.1937082E-1,6.75844E-2,9.923196E-2,1.890792E-1,1.5430272E-1,2.1527097E-1,1.6920495E-1,1.2368566E-1,5.898871E-2,2.0891106E-1,1.8746048E-1,2.2932857E-2,2.4798214E-3,8.836333E-3,4.6559572E-2,2.098671E-2,1.7058747E-2,6.728196E-2,1.9303985E-2,1.02701396E-1,7.590559E-2,1.3621557E-1,4.3495886E-2,2.4329077E-1,1.6321373E-1,8.4690064E-2,1.00125104E-1,4.1315913E-2,1.0510027E-2,1.7010476E-2,1.5771668E-2,2.4914408E-1,2.1189573E-1,6.357093E-2,1.203208E-1,0E0,0E0,0E0,0E0,2.4414025E-3,1.3149126E-3,5.3647637E-2,2.6160538E-2,0E0,0E0,0E0,0E0,0E0,0E0,0E0,0E0,0E0,0E0,0E0,0E0,0E0,0E0,0E0,0E0,0E0,0E0,0E0,0E0,0E0,0E0,0E0,0E0,0E0,0E0,0E0,0E0,0E0,0E0,0E0,0E0,0E0,0E0,0E0,0E0,0E0,0E0,0E0,0E0,0E0,0E0,0E0,0E0,0E0,0E0,0E0,0E0],"parents":[2147483647,0,0,1,1,2,2,3,3,4,4,5,5,6,6,7,7,8,8,9,9,10,10,11,11,12,12,14,14,15,15,16,16,17,17,18,18,19,19,20,20,21,21,22,22,23,23,24,24,25,25,26,26,27,27,28,28,29,29,30,30,31,31,32,32,33,33,34,34,35,35,36,36,37,37,38,38,39,39,40,40,41,41,42,42,43,43,44,44,45,45,46,46,47,47,48,48,53,53,54,54,55,55,56,56],"right_children":[2,4,6,8,10,12,14,16,18,20,22,24,26,-1,28,30,32,34,36,38,40,42,44,46,48,50,52,54,56,58,60,62,64,66,68,70,72,74,76,78,80,82,84,86,88,90,92,94,96,-1,-1,-1,-1,98,100,102,104,-1,-1,-1,-1,-1,-1,-1,-1,-1,-1,-1,-1,-1,-1,-1,-1,-1,-1,-1,-1,-1,-1,-1,-1,-1,-1,-1,-1,-1,-1,-1,-1,-1,-1,-1,-1,-1,-1,-1,-1,-1,-1,-1,-1,-1,-1,-1,-1],"split_conditions":[6.2635026E0,3.771781E0,1E0,1.787599E0,2.210403E0,1E0,2.8406413E-2,3.6899846E0,5E-1,4.8996904E-1,6.853761E-1,1.5756892E-3,7.6340436E-4,3.4136605E-2,7.941433E0,5.5842644E-1,1.1219467E0,2.607E0,1E0,1.8523027E-4,8.457946E0,2.2706733E0,-1.0534134E-1,5.4107107E-2,1.8949169E0,1.4922297E0,2.327881E1,1.1545579E-2,-2.7907329E-2,9E-1,-4.9116075E-1,4.99046E-2,7.170053E1,1.9906908E-1,3.6603248E-1,1.804176E2,8.0255093E-4,7.229951E0,2.0120871E-1,-7.3849365E-2,6.532034E-2,1.5957862E-1,1.48971615E1,7.5964534E-1,5.1E1,-5.6874115E-2,1.1437991E1,1.4576517E-3,2.6855395E0,5.2106725E-3,2.8612072E-2,4.6588332E-4,6.7320312E-3,1.4641555E-1,6.8977547E0,1.392E2,2.686745E-1,2.2896193E-5,-6.335789E-3,5.1408284E-3,-2.5797554E-3,-8.325974E-3,-3.8462002E-3,-2.3871497E-3,5.4136817E-3,1.7422608E-3,1.3581055E-2,1.2808953E-2,-3.3753493E-3,-5.3865863E-3,-2.6355765E-3,1.1369026E-3,1.1790832E-2,1.6013617E-2,-5.0594524E-4,-2.6843665E-4,-4.128186E-3,-2.3226247E-3,1.1291312E-2,-1.7421875E-3,4.6677697E-3,-2.0371874E-5,1.4884886E-2,2.8770566E-3,-6.577512E-3,-1.0030384E-2,5.9930485E-4,1.133884E-2,1.996037E-3,1.4856182E-2,5.202378E-3,2.628532E-3,1.7392537E-2,-4.8959106E-3,9.482796E-3,1.0235126E-2,2.4137469E-2,2.217386E-3,6.619878E-3,-1.8362716E-3,1.314053E-3,1.1556122E-2,1.8887123E-2,1.1471116E-2,-1.7595291E-4],"split_indices":[0,0,101,0,3,104,33,2,55,32,7,14,16,0,0,24,24,38,104,12,2,3,43,26,68,3,1,44,47,55,70,34,1,43,25,30,17,19,42,46,44,8,2,7,20,41,70,13,67,0,0,0,0,8,0,54,8,0,0,0,0,0,0,0,0,0,0,0,0,0,0,0,0,0,0,0,0,0,0,0,0,0,0,0,0,0,0,0,0,0,0,0,0,0,0,0,0,0,0,0,0,0,0,0,0],"split_type":[0,0,0,0,0,0,0,0,0,0,0,0,0,0,0,0,0,0,0,0,0,0,0,0,0,0,0,0,0,0,0,0,0,0,0,0,0,0,0,0,0,0,0,0,0,0,0,0,0,0,0,0,0,0,0,0,0,0,0,0,0,0,0,0,0,0,0,0,0,0,0,0,0,0,0,0,0,0,0,0,0,0,0,0,0,0,0,0,0,0,0,0,0,0,0,0,0,0,0,0,0,0,0,0,0],"sum_hessian":[2.88E3,2.125E3,7.55E2,1.282E3,8.43E2,6.38E2,1.17E2,3.04E2,9.78E2,7.98E2,4.5E1,6.29E2,9E0,3E0,1.14E2,4.1E1,2.63E2,2.33E2,7.45E2,6.67E2,1.31E2,3.1E1,1.4E1,5.88E2,4.1E1,6E0,3E0,1.6E1,9.8E1,2.6E1,1.5E1,2.52E2,1.1E1,1.01E2,1.32E2,7.3E2,1.5E1,3.5E1,6.32E2,3.5E1,9.6E1,2.7E1,4E0,6E0,8E0,1.7E2,4.18E2,1.1E1,3E1,1E0,5E0,1E0,2E0,1.2E1,4E0,5.9E1,3.9E1,7E0,1.9E1,1.2E1,3E0,2.09E2,4.3E1,5E0,6E0,9.4E1,7E0,2E0,1.3E2,3.89E2,3.41E2,9E0,6E0,1.5E1,2E1,4.92E2,1.4E2,5E0,3E1,5.1E1,4.5E1,2E0,2.5E1,1E0,3E0,4E0,2E0,2E0,6E0,3.3E1,1.37E2,4.09E2,9E0,7E0,4E0,1.9E1,1.1E1,3E0,9E0,1E0,3E0,2.4E1,3.5E1,3.7E1,2E0],"tree_param":{"num_deleted":"0","num_feature":"111","num_nodes":"105","size_leaf_vector":"1"}},{"base_weights":[5.6904706E-4,-2.9450221E-2,3.910363E-2,-4.962533E-2,-1.9004842E-2,2.115709E-2,7.99295E-2,-5.4431316E-2,-1.461756E-2,-3.0077523E-2,1.3160584E-3,8.883144E-3,4.998101E-2,4.69402E-2,1.2457174E-1,-4.3478508E-2,-7.393303E-2,-3.689235E-2,2.517077E-2,-1.416481E-3,-3.8977135E-2,7.823327E-3,-5.8867775E-2,1.2315895E-1,5.2435384E-3,-9.913025E-3,6.178629E-2,3.64963E-2,1.5715386E-1,-1.565105E-2,1.2903556E-1,-1.0606004E-1,-3.9972525E-2,-7.768852E-2,2.6224164E-2,4.211254E-3,-5.829805E-2,1.2560495E-2,8.823459E-3,1.0466306E-2,-7.523483E-2,-3.5223488E-2,-1.2792356E-1,1.756625E-2,-3.826119E-2,-7.8905754E-2,2.3633111E-2,-5.0214123E-2,1.4650956E-1,5.6666147E-2,-3.2538702E-3,-5.168595E-2,8.329224E-2,-4.619466E-4,7.444369E-2,4.2797897E-2,-9.066469E-3,2.0431958E-1,2.0908216E-2,1.2299626E-1,2.9286236E-2,-1.1452272E-2,-3.1214245E-3,-9.804107E-3,-3.697978E-3,-2.4566583E-3,-8.27692E-3,5.870996E-3,-3.666022E-3,4.894383E-3,-6.029403E-3,-6.6325488E-3,-6.5012573E-4,-1.993022E-3,2.905151E-3,1.7090289E-2,3.41496E-4,-9.8395385E-3,6.7859644E-4,6.3408385E-3,-3.7941919E-3,-1.4066837E-2,6.3486206E-3,-1.035004E-3,3.2877612E-3,-5.6364164E-3,3.1523728E-3,-9.906428E-3,-3.5080647E-3,-3.704731E-3,5.0034467E-3,-8.258863E-3,7.2674453E-4,3.7991058E-3,1.8855967E-2,1.8624036E-2,4.6239756E-3,-6.582147E-4,1.0095814E-2,-9.3181245E-3,-2.4204478E-3,-1.4601992E-3,1.5853817E-2,3.9854646E-3,-5.8388175E-3,1.1161195E-2,4.794311E-3,1.8555782E-3,8.4290495E-3,1.0123185E-2,2.2323152E-2,5.9046783E-3,-3.691261E-3,1.5207251E-2,9.524066E-3],"categories":[],"categories_nodes":[],"categories_segments":[],"categories_sizes":[],"default_left":[0,0,0,0,0,0,0,0,0,0,0,0,0,0,0,0,0,0,0,0,0,0,0,0,0,0,0,0,0,0,0,0,0,0,0,0,0,0,0,0,0,0,0,0,0,0,0,0,0,0,0,0,0,0,0,0,0,0,0,0,0,0,0,0,0,0,0,0,0,0,0,0,0,0,0,0,0,0,0,0,0,0,0,0,0,0,0,0,0,0,0,0,0,0,0,0,0,0,0,0,0,0,0,0,0,0,0,0,0,0,0,0,0,0,0],"id":13,"left_children":[1,3,5,7,9,11,13,15,17,19,21,23,25,27,29,31,33,35,37,39,41,43,45,47,49,51,53,55,57,-1,59,61,63,65,67,69,71,73,-1,75,77,79,81,83,85,87,89,91,93,95,97,99,101,103,105,107,-1,109,111,113,-1,-1,-1,-1,-1,-1,-1,-1,-1,-1,-1,-1,-1,-1,-1,-1,-1,-1,-1,-1,-1,-1,-1,-1,-1,-1,-1,-1,-1,-1,-1,-1,-1,-1,-1,-1,-1,-1,-1,-1,-1,-1,-1,-1,-1,-1,-1,-1,-1,-1,-1,-1,-1,-1,-1],"loss_changes":[3.3338346E0,3.4045017E-1,9.2295516E-1,9.207666E-2,2.4057192E-1,3.101777E-1,5.611484E-1,1.0038078E-1,6.1195422E-2,1.7645466E-1,1.4849757E-1,2.5597614E-1,1.858638E-1,2.50951E-1,2.2471142E-1,6.443578E-2,6.7109525E-2,3.8958967E-2,1.8773032E-2,1.455201E-1,1.7177922E-1,1.5422942E-1,6.3031375E-2,8.427578E-2,2.6192278E-1,1.7561711E-1,1.725846E-1,1.6815037E-1,1.17824316E-1,0E0,1.2327242E-1,6.5595806E-3,4.8162192E-2,4.3039083E-2,1.6452266E-2,4.9118817E-2,1.1626862E-2,1.236671E-2,0E0,1.6119139E-1,4.435958E-2,1.3861275E-1,6.0159564E-2,1.21304795E-1,7.757567E-2,2.302824E-2,1.4670005E-2,6.1830203E-3,7.0411086E-2,1.0622257E-1,1.7929041E-1,3.309551E-2,1.0544097E-1,9.1071784E-2,1.739155E-1,1.9558612E-1,0E0,4.6961308E-3,1.5410792E-2,1.1221981E-1,0E0,0E0,0E0,0E0,0E0,0E0,0E0,0E0,0E0,0E0,0E0,0E0,0E0,0E0,0E0,0E0,0E0,0E0,0E0,0E0,0E0,0E0,0E0,0E0,0E0,0E0,0E0,0E0,0E0,0E0,0E0,0E0,0E0,0E0,0E0,0E0,0E0,0E0,0E0,0E0,0E0,0E0,0E0,0E0,0E0,0E0,0E0,0E0,0E0,0E0,0E0,0E0,0E0,0E0,0E0],"parents":[2147483647,0,0,1,1,2,2,3,3,4,4,5,5,6,6,7,7,8,8,9,9,10,10,11,11,12,12,13,13,14,14,15,15,16,16,17,17,18,18,19,19,20,20,21,21,22,22,23,23,24,24,25,25,26,26,27,27,28,28,30,30,31,31,32,32,33,33,34,34,35,35,36,36,37,37,39,39,40,40,41,41,42,42,43,43,44,44,45,45,46,46,47,47,48,48,49,49,50,50,51,51,52,52,53,53,54,54,55,55,57,57,58,58,59,59],"right_children":[2,4,6,8,10,12,14,16,18,20,22,24,26,28,30,32,34,36,38,40,42,44,46,48,50,52,54,56,58,-1,60,62,64,66,68,70,72,74,-1,76,78,80,82,84,86,88,90,92,94,96,98,100,102,104,106,108,-1,110,112,114,-1,-1,-1,-1,-1,-1,-1,-1,-1,-1,-1,-1,-1,-1,-1,-1,-1,-1,-1,-1,-1,-1,-1,-1,-1,-1,-1,-1,-1,-1,-1,-1,-1,-1,-1,-1,-1,-1,-1,-1,-1,-1,-1,-1,-1,-1,-1,-1,-1,-1,-1,-1,-1,-1,-1],"split_conditions":[4.5765676E0,2.3201466E0,8.774889E0,1.5312829E-4,1.8296379E2,1E0,1.8504173E1,1E0,8.548427E-3,4.919928E-2,1.1E1,8.136353E-5,-2.6116822E0,4.9683172E-1,7.591425E-1,7.722748E-1,1.0585303E0,1.1E0,2.0120871E-1,7.149305E-2,1E0,8.452638E-2,5.0981295E-1,4.548274E-5,-1.0112347E-1,3.376114E1,2.0571575E0,1.54E2,1.4535426E-4,-1.565105E-2,3.1464303E-1,1.7581436E-1,-4.2688155E-1,3.774751E-1,2.1944997E0,3.405975E-1,1.094403E-3,4.5361775E-1,8.823459E-3,2.8E1,1.8289478E1,3.5479787E-1,4.0719135E1,4.9780518E-1,1E0,5.068045E-1,5.59554E0,5.7152224E0,5.0636566E-1,-1.1885297E1,1E0,1.5700732E0,-1.9006763E-2,2.2E0,6.1E1,1.8348941E2,-9.066469E-3,4.9847433E-1,2.0922786E-1,3.2946357E-1,2.9286236E-2,-1.1452272E-2,-3.1214245E-3,-9.804107E-3,-3.697978E-3,-2.4566583E-3,-8.27692E-3,5.870996E-3,-3.666022E-3,4.894383E-3,-6.029403E-3,-6.6325488E-3,-6.5012573E-4,-1.993022E-3,2.905151E-3,1.7090289E-2,3.41496E-4,-9.8395385E-3,6.7859644E-4,6.3408385E-3,-3.7941919E-3,-1.4066837E-2,6.3486206E-3,-1.035004E-3,3.2877612E-3,-5.6364164E-3,3.1523728E-3,-9.906428E-3,-3.5080647E-3,-3.704731E-3,5.0034467E-3,-8.258863E-3,7.2674453E-4,3.7991058E-3,1.8855967E-2,1.8624036E-2,4.6239756E-3,-6.582147E-4,1.0095814E-2,-9.3181245E-3,-2.4204478E-3,-1.4601992E-3,1.5853817E-2,3.9854646E-3,-5.8388175E-3,1.1161195E-2,4.794311E-3,1.8555782E-3,8.4290495E-3,1.0123185E-2,2.2323152E-2,5.9046783E-3,-3.691261E-3,1.5207251E-2,9.524066E-3],"split_indices":[0,0,0,36,30,62,2,60,48,26,23,14,68,32,1,0,24,55,42,33,94,27,32,29,44,1,67,20,29,0,41,45,45,25,3,7,15,9,0,21,2,9,1,24,80,31,2,0,9,70,86,3,49,52,20,30,0,24,8,7,0,0,0,0,0,0,0,0,0,0,0,0,0,0,0,0,0,0,0,0,0,0,0,0,0,0,0,0,0,0,0,0,0,0,0,0,0,0,0,0,0,0,0,0,0,0,0,0,0,0,0,0,0,0,0],"split_type":[0,0,0,0,0,0,0,0,0,0,0,0,0,0,0,0,0,0,0,0,0,0,0,0,0,0,0,0,0,0,0,0,0,0,0,0,0,0,0,0,0,0,0,0,0,0,0,0,0,0,0,0,0,0,0,0,0,0,0,0,0,0,0,0,0,0,0,0,0,0,0,0,0,0,0,0,0,0,0,0,0,0,0,0,0,0,0,0,0,0,0,0,0,0,0,0,0,0,0,0,0,0,0,0,0,0,0,0,0,0,0,0,0,0,0],"sum_hessian":[2.88E3,1.619E3,1.261E3,5.51E2,1.068E3,8.77E2,3.84E2,4.84E2,6.7E1,6.91E2,3.77E2,6.16E2,2.61E2,2.22E2,1.62E2,3.12E2,1.72E2,4.3E1,2.4E1,1.64E2,5.27E2,3.41E2,3.6E1,1.8E1,5.98E2,4.3E1,2.18E2,2.04E2,1.8E1,2E0,1.6E2,1.5E1,2.97E2,1.66E2,6E0,1.5E1,2.8E1,2.1E1,3E0,1.42E2,2.2E1,5.07E2,2E1,2.82E2,5.9E1,2.9E1,7E0,2E0,1.6E1,8.4E1,5.14E2,3E1,1.3E1,3.7E1,1.81E2,1.95E2,9E0,1.3E1,5E0,1.56E2,4E0,1.3E1,2E0,1.3E1,2.84E2,1.5E1,1.51E2,4E0,2E0,9E0,6E0,2.4E1,4E0,7E0,1.4E1,5E0,1.37E2,1.7E1,5E0,1.3E1,4.94E2,1.9E1,1E0,1E2,1.82E2,4.7E1,1.2E1,1.9E1,1E1,2E0,5E0,1E0,1E0,5E0,1.1E1,5E0,7.9E1,4.99E2,1.5E1,1.1E1,1.9E1,6E0,7E0,2.2E1,1.5E1,7.4E1,1.07E2,1.24E2,7.1E1,3E0,1E1,3E0,2E0,7.4E1,8.2E1],"tree_param":{"num_deleted":"0","num_feature":"111","num_nodes":"115","size_leaf_vector":"1"}},{"base_weights":[5.448669E-4,-1.784417E-2,5.225723E-2,-3.403323E-2,7.667465E-4,4.086067E-2,1.1352963E-1,-5.130259E-2,-2.5053838E-2,-1.0649646E-2,2.6810214E-2,3.8600698E-2,1.7915305E-1,3.0490506E-2,1.0588588E-1,-2.1749608E-2,-6.190683E-2,-1.1828501E-2,-3.7831582E-2,4.643228E-2,-1.5970064E-2,3.3049174E-2,-4.6834778E-2,3.397048E-2,1.0261493E-1,8.290853E-2,2.5881587E-2,3.9145105E-2,1.1627686E-1,-3.413524E-2,3.9322585E-2,-8.7117545E-2,-5.1116694E-2,1.3217585E-2,-2.6441686E-2,-4.0007513E-2,1.3379981E-2,1.3325678E-1,1.1026494E-2,1.7527731E-2,-2.6180195E-2,4.3071542E-2,-1.7339364E-2,-7.9802096E-2,9.440145E-2,7.146291E-2,2.6249636E-2,1.2800992E-1,-4.264712E-2,4.7550054E-4,9.7588245E-3,5.003754E-2,2.9957413E-3,7.087156E-2,1.2759276E-1,5.32267E-3,-4.1263616E-3,-1.7451035E-4,1.0410683E-2,-9.171151E-3,6.7489976E-3,-7.3681534E-3,-3.6921382E-3,2.1944372E-3,-4.9674106E-3,-2.8683054E-3,1.5570461E-2,1.4086096E-3,-4.3725166E-3,1.9495258E-3,1.7903281E-2,-1.7246103E-3,8.550121E-3,7.585391E-3,-9.519894E-4,4.170216E-3,-3.1728111E-3,5.0797816E-3,-5.2036615E-3,9.434031E-3,-2.9922132E-3,2.9957802E-3,-9.366197E-3,1.4015922E-2,1.717653E-3,-2.3648453E-4,9.880146E-3,7.852598E-3,1.7349946E-3,3.3193107E-3,1.4975214E-2,-9.549291E-3,5.9644897E-3,6.238921E-3,2.522906E-3,-1.7115474E-3,1.2302414E-3,9.170885E-3,2.0672878E-6,1.7083287E-2,1.0640447E-2],"categories":[],"categories_nodes":[],"categories_segments":[],"categories_sizes":[],"default_left":[0,0,0,0,0,0,0,0,0,0,0,0,0,0,0,0,0,0,0,0,0,0,0,0,0,0,0,0,0,0,0,0,0,0,0,0,0,0,0,0,0,0,0,0,0,0,0,0,0,0,0,0,0,0,0,0,0,0,0,0,0,0,0,0,0,0,0,0,0,0,0,0,0,0,0,0,0,0,0,0,0,0,0,0,0,0,0,0,0,0,0,0,0,0,0,0,0,0,0,0,0],"id":14,"left_children":[1,3,5,7,9,11,13,15,17,19,21,23,25,-1,27,29,31,33,35,37,39,41,43,45,47,49,-1,51,53,55,57,59,61,63,65,67,-1,69,71,73,75,77,79,81,83,85,87,89,91,-1,-1,93,95,97,99,-1,-1,-1,-1,-1,-1,-1,-1,-1,-1,-1,-1,-1,-1,-1,-1,-1,-1,-1,-1,-1,-1,-1,-1,-1,-1,-1,-1,-1,-1,-1,-1,-1,-1,-1,-1,-1,-1,-1,-1,-1,-1,-1,-1,-1,-1],"loss_changes":[2.7405922E0,6.405756E-1,5.232718E-1,1.7502737E-1,2.9463473E-1,1.9279587E-1,1.4032829E-1,1.2024772E-1,1.2629497E-1,2.0999064E-1,1.4030722E-1,1.8324614E-1,5.5213034E-2,0E0,7.5201035E-2,8.000972E-2,7.307446E-2,1.3577065E-1,1.476404E-1,1.7990196E-1,2.1627155E-1,1.4164534E-1,1.19281754E-1,1.686238E-1,1.6039422E-1,6.4195916E-3,0E0,6.5439288E-3,4.1823626E-2,5.6375444E-2,4.8071377E-2,6.585151E-2,6.1983228E-2,7.628147E-2,9.999815E-2,7.6431155E-2,0E0,8.5038066E-2,9.201509E-2,2.342046E-1,1.8360028E-1,1.7385915E-1,6.8869114E-2,3.3231065E-2,1.5260752E-2,2.0206803E-1,2.2660682E-1,6.9244325E-2,4.3535583E-2,0E0,0E0,2.4095178E-3,1.1464041E-3,3.2477587E-2,5.3285003E-2,0E0,0E0,0E0,0E0,0E0,0E0,0E0,0E0,0E0,0E0,0E0,0E0,0E0,0E0,0E0,0E0,0E0,0E0,0E0,0E0,0E0,0E0,0E0,0E0,0E0,0E0,0E0,0E0,0E0,0E0,0E0,0E0,0E0,0E0,0E0,0E0,0E0,0E0,0E0,0E0,0E0,0E0,0E0,0E0,0E0,0E0],"parents":[2147483647,0,0,1,1,2,2,3,3,4,4,5,5,6,6,7,7,8,8,9,9,10,10,11,11,12,12,14,14,15,15,16,16,17,17,18,18,19,19,20,20,21,21,22,22,23,23,24,24,25,25,27,27,28,28,29,29,30,30,31,31,32,32,33,33,34,34,35,35,37,37,38,38,39,39,40,40,41,41,42,42,43,43,44,44,45,45,46,46,47,47,48,48,51,51,52,52,53,53,54,54],"right_children":[2,4,6,8,10,12,14,16,18,20,22,24,26,-1,28,30,32,34,36,38,40,42,44,46,48,50,-1,52,54,56,58,60,62,64,66,68,-1,70,72,74,76,78,80,82,84,86,88,90,92,-1,-1,94,96,98,100,-1,-1,-1,-1,-1,-1,-1,-1,-1,-1,-1,-1,-1,-1,-1,-1,-1,-1,-1,-1,-1,-1,-1,-1,-1,-1,-1,-1,-1,-1,-1,-1,-1,-1,-1,-1,-1,-1,-1,-1,-1,-1,-1,-1,-1,-1],"split_conditions":[6.2635026E0,3.4910035E0,1E0,1.5102804E0,1.8364938E2,1E0,2.8406413E-2,1.498E0,1.1790428E1,4.3801746E-1,1E0,1.5756892E-3,1.5523677E0,3.0490506E-2,7.941433E0,9.2277257E-4,4.7107327E-1,9E-1,1E0,5.2745547E-2,1.7157967E-1,3.6237675E-1,1.0180647E-3,2.748897E-1,3.7699165E1,2.327881E1,2.5881587E-2,1.1545579E-2,3.5268936E-2,-1.1153849E1,4.1986182E-2,4.1693544E-1,2.091024E0,1E0,7.6893463E2,1.4647607E-4,1.3379981E-2,-1.1807195E-1,1.066E2,2.5666004E-1,3.6828947E-1,1E0,-1.1671397E-1,3.563161E0,3.4812935E1,-1.4476278E-1,8.34E1,1.8949169E0,8.310602E0,4.7550054E-4,9.7588245E-3,6.6314843E-3,6.8977547E0,1.94E2,-1.6864333E-1,5.32267E-3,-4.1263616E-3,-1.7451035E-4,1.0410683E-2,-9.171151E-3,6.7489976E-3,-7.3681534E-3,-3.6921382E-3,2.1944372E-3,-4.9674106E-3,-2.8683054E-3,1.5570461E-2,1.4086096E-3,-4.3725166E-3,1.9495258E-3,1.7903281E-2,-1.7246103E-3,8.550121E-3,7.585391E-3,-9.519894E-4,4.170216E-3,-3.1728111E-3,5.0797816E-3,